solver_type L2R_LR
nr_class 2
label 1 0
nr_feature 14687
bias 1
w
0.00025940958448325628 
0.0006757210151513189 
9.2599051199404266e-05 
0.00027438913378599031 
0.0007329110524999827 
0.00016183791414308316 
0.00048649037748805531 
0.00077043540560772458 
0.0003132059236376078 
0.00036215059717894285 
0.00073341643451899812 
0.00026501627916898044 
0.00048019601864041881 
0.00067850352392527079 
0.00030890595716245422 
0.00036488178157465114 
0.00063724789668872476 
0.00024110704254187227 
0.0003000945735356448 
0.0003227207332915479 
3.4071127072545011e-05 
-4.5038805096518693e-05 
4.9558293271849766e-05 
-0.00024951671974591367 
9.6248647606323186e-05 
0.00010280869473772543 
-0.00011482264721524389 
0.00035287204673408959 
0.00046603731150609027 
0.00019716848216575717 
0.00061321821507380621 
0.00064633826291883166 
0.00043396110807383662 
0.00053082846848048271 
0.0006688838389891929 
0.00041285808285688395 
0.00035796228460104659 
0.00042280232347935887 
0.00031314247956444282 
3.6238775212098115e-05 
0.00025919982116007044 
0.00013383368288230642 
0.00015736288374197058 
0.00030604355038628151 
0.00040606968657866697 
0.00020781744888225033 
0.00051005214388739461 
0.00052930969759661301 
0.00033276126223462079 
0.00065324741293507592 
0.00060355607451911635 
0.00022707215752227239 
0.00062584639263261121 
0.00048407998049511262 
0.00025827835354864096 
0.00046299346448844692 
0.00045540152436634757 
4.1176330496687431e-05 
0.00030242021778862337 
0.00019462728132564253 
0.0001522429981992667 
0.00029651786637269092 
0.00021851716639621299 
0.00016037525629421532 
0.0004025697001714142 
0.00020536075360810043 
0.00019003154874063584 
0.00026836705037734361 
0.00014746103970089924 
0.00019149413180880162 
0.00039453082307815878 
0.00016770744483478718 
0.00039959207400340485 
0.00057320046796839976 
0.00041561335628192237 
0.00035196452555670701 
0.00065788179926271723 
0.00035225433913882909 
0.00015423473392244157 
0.00039121468565380589 
0.00012701977374104362 
-0.00027606299568766105 
7.399188231582548e-05 
-0.0003238366616830189 
-0.00034708582598572065 
-0.00018741839643752759 
-0.00047156975220914471 
-0.00049302770525086958 
-0.00025108304826208566 
-0.00059492568799584622 
-0.00020635693129510848 
-0.00032454325842499072 
-0.00037398813411251987 
-0.00012532138309527576 
-0.00010657951857928006 
-0.00022306117448207312 
-0.00022604340642347053 
-0.00013105436358416662 
-0.0003557137169527178 
-0.00042395915332643403 
-0.00013336853204609544 
-0.00048880666776648886 
-0.00033023415193103432 
-0.00021704981574534991 
-0.00041294264960728996 
-0.00063775039085513393 
-0.00032680249376582326 
-0.00056536042998372353 
-0.00069501730465439939 
-0.00042334103696538039 
-0.0004698282142896265 
-0.00058806704562394522 
-6.7673322973589456e-05 
-0.00012831741957201602 
-0.00027582162799922802 
0.00011333406536142868 
0.00023124758905204465 
-0.00030943565305502916 
0.00023944407223493996 
0.00029297376283010472 
-0.00017528778546089754 
0.00014075105470277006 
0.00031543357355823476 
-0.00022134887007535742 
0.00021238296781832063 
0.00031221902856495479 
-7.7074305847444079e-05 
0.00022923560124711752 
0.00042673634917592547 
-8.5351812076055587e-05 
0.00037473106005281591 
0.00050672448551838294 
6.5398006160223454e-05 
0.00043367773030291757 
0.00067538324947404558 
0.0001143714903114213 
0.00055186871849893207 
0.00072959617300843614 
0.00023439953338818043 
0.00052549619201469014 
0.00076590127723733599 
0.00014419921048799218 
0.0004961935092998315 
0.00062574239767290924 
0.00022870598653891032 
0.00053484927925939729 
0.00063356629844468044 
1.977934960856523e-05 
0.00036599731099348922 
0.00036451879267490687 
8.023072993668676e-05 
0.00013333901823229572 
0.00022414108717435844 
-0.00011789102435242586 
-3.1186357782962439e-05 
-9.7179775845146292e-06 
-0.00028918301168724111 
-0.00021860069727581272 
-0.00017655873507461283 
-0.00035754230985387539 
-0.00017558193953201391 
-0.00022789711921714117 
-0.00013014301914438087 
5.9091940602886507e-05 
4.0463711254789103e-05 
-0.00025760946727225448 
9.304241462151649e-05 
-1.49675798307141e-05 
-0.0002863585455943405 
-6.3391688523395406e-05 
-5.5065545776947794e-05 
-0.00040075024797255271 
-1.1434282320210281e-05 
-7.9364169130844144e-05 
-0.00021577428114783392 
0.00010377171993598169 
0.00018374302410912653 
-0.00021810728150212957 
0.00028237984990191239 
0.00029028575818869823 
-7.279670096959873e-05 
0.00035167062477957405 
0.00049735142736899755 
6.4194542947912137e-05 
0.00060873181816374438 
0.00073049594507838616 
5.6620020865603411e-05 
0.00040520698974494596 
0.00073110181502871255 
-0.00014894546523488224 
0.00022879412873633753 
0.00054120965812035548 
-0.00025996499157988472 
0.00011148334089980218 
0.00038081891344587455 
-0.00011537993136567608 
0.00031107165618449954 
0.00050987963703513848 
0.00014574495475762591 
0.00035299559470548461 
0.00061739183262327438 
-1.6400810232437643e-06 
0.00027779635118042406 
0.00040738501802541755 
2.2852147848812214e-05 
0.00016877876400873561 
0.00030026995700417174 
0.00014578791129227063 
0.0003632327488589415 
0.0003161612781136407 
0.00037082516860469274 
0.00051907423521084257 
0.00047002881770601552 
0.00023887941273978324 
0.00042280076970169022 
0.0001954524401562255 
-4.6866279600099429e-05 
-8.8638573436018898e-05 
-0.00018807826146201285 
-0.00036905507098173007 
-0.00032826026298039823 
-0.00056251396235648904 
-0.00013909303301344993 
-0.00023930547944440105 
-0.00034263556111615451 
2.6398520145905019e-05 
7.3548537545023489e-05 
-9.8562894077240367e-05 
0.00018560927531020171 
0.00029190405588934068 
0.00017552343867756394 
-1.1603315623101714e-05 
0.00035953740442447681 
0.00021653289710637925 
-3.4124005376324495e-05 
0.00030751003112710641 
0.00038329506325276655 
-0.00013993502933167464 
0.0004488040390002681 
0.00045551409640747073 
-0.00013932621079411719 
0.00056721419730302073 
0.00051047678228463545 
-0.00019957008306478849 
0.00059287198878508736 
0.00045085438790786213 
-6.7440421185056577e-05 
0.00041084172077620538 
0.00038821783058356449 
-0.00015420350326669487 
0.00036846800542565314 
0.00022471861246750537 
-8.0686185909772257e-05 
0.00026305291902255863 
0.00017135511996512731 
-9.9924170090476657e-05 
0.00030671548406290575 
7.5321199386300459e-05 
1.3024112754961524e-05 
0.00023530803610173609 
-7.9798201856749032e-05 
6.8675221660664083e-05 
0.00034422233595967521 
-5.7679673932187279e-05 
0.00013286127686428959 
0.00027771400364494083 
-8.7639422211296041e-05 
0.00011654282097633712 
0.00034271458791195803 
-6.038905028287325e-05 
0.00010674426230595967 
0.00028239848373026624 
1.6380124973297697e-05 
-0.00012795509009063985 
0.00014290330037572887 
-0.00015068963902169907 
-0.00011889060256360884 
0.0001189479538537568 
-8.1701196109196938e-05 
-0.00016351806703487911 
0.00024044036608175619 
-7.2998250141757698e-05 
-3.9601399534853256e-05 
0.00025678648086701255 
9.9785263586542656e-05 
-0.00020038222542211121 
0.00026474620126456302 
4.0025506054780732e-05 
-0.00027063808641360887 
0.00017816834991697959 
-1.6218054778237528e-06 
-0.00046589805012842828 
0.00020615426590038827 
-5.1255928159503177e-05 
-0.00063133823841445924 
-9.5304476515675084e-05 
-0.00024922261485023231 
-0.0010310918166499335 
-0.00027792990436000811 
-0.00060002151574253153 
-0.0011599524140921164 
-0.00057434025898310884 
-0.00072816266169531472 
-0.0010232803299740731 
-0.00030976590503135589 
-0.00071365509209423902 
-0.00064548607760950998 
-0.00022504553985998335 
-0.00056110036800675975 
-0.00066732569147847059 
-0.00016745066137927386 
-0.00070058520050721596 
-0.00047889705435423909 
-0.00025336170271672261 
-0.00075801948698766284 
-0.0007223091994127479 
-0.00039406192735776628 
-0.0010245073498371079 
-0.00045234373046877446 
-0.00036096564622466166 
-0.00083830147977045932 
-0.00051669897576059906 
-0.00031839487590681773 
-0.00084559093229634604 
-0.00011795285651823357 
-0.00012627385415208195 
-0.00061665466920005855 
6.2995236836449922e-05 
0.00012873228045704298 
-0.00036837378002556418 
0.00019162751410572147 
9.8608435106252055e-05 
-0.00023189254728393601 
0.00010537716632294495 
0.00021688830150797707 
-0.0001162434778915598 
0.00011313518288191513 
0.00026647482422895223 
7.5829116524006124e-05 
-0.00010178024688503095 
0.00027839264184338663 
8.382834890826877e-05 
0.0001549334353372979 
0.00043399136118199566 
0.0004291221231854165 
0.00021163197443302938 
0.0007185789429011262 
0.00064418959073689601 
0.00028094909136510424 
0.00074173960397180328 
0.00072032306660740398 
0.00020165341200915223 
0.00084244773168986849 
0.00067679234377972599 
7.5481163725243884e-05 
0.00064001624475268424 
0.00046456243817011994 
-0.00014200138499523095 
0.00046585620829350327 
0.00016290564416771402 
-0.00015106223729967295 
0.00024699571105631752 
0.0001081254791154067 
-0.00021861201313984292 
0.00017767620029387611 
-3.7664832105318227e-05 
-0.0001022062328905109 
4.3271013172001304e-05 
-2.0011578048366811e-05 
4.6739818395552174e-05 
0.00024667543435222684 
0.0001021717087312914 
0.00028638857801310688 
0.00040519745493779234 
0.00022170021955832781 
0.00040853301575530178 
0.00065117205112150329 
0.00035784783860029858 
0.00047831931704426584 
0.00056321956452049871 
0.00032749796154721549 
0.00043928124744724615 
0.00062943437665703781 
0.00027945659053831983 
0.00050061620781898441 
0.00061164017531963088 
0.00022467119503714747 
0.00035264969144153751 
0.00057879900435715251 
0.00013564604737569314 
0.00013503786284909609 
0.00030935786691045571 
9.825852140270635e-05 
-1.9612476229258802e-05 
0.00038131551117780193 
8.4006055166302863e-05 
0.00016181430696731832 
0.00049929965603186504 
0.00031115435965852416 
0.00025045381967940517 
0.00076690245920610779 
0.0004394045574655613 
0.00016734381026705083 
0.00057672963088867464 
0.00030888156901891445 
-4.0135031334477474e-05 
0.00044094360422501503 
9.3784672887080401e-05 
0.00020565510244034034 
0.00058975853484722913 
3.73827837117612e-05 
-0.00017329026759416562 
0.00025826288216650108 
-0.00028174809720317966 
-0.00044670730233907794 
-0.00015264028966451248 
-0.00055518165101101264 
-0.00058864600866227973 
-0.00031962565671671137 
-0.00072093359920701039 
-0.00014292978348994398 
6.1255219398177694e-05 
-0.00026514660451924582 
-4.8160129839350493e-05 
0.00015393295167802712 
-0.00014947909689473496 
-0.00021942879484301226 
-0.00015230667683900119 
-0.0003930808611208983 
-0.00037173070277999367 
-0.00033200463144601088 
-0.00056053016972003756 
-3.4639289128598238e-05 
-1.4158490521966743e-05 
-0.00021671782059030608 
0.00025728203317767036 
0.00033803386300366057 
0.00010740968436572711 
0.00038955647233646448 
0.00042931444672823424 
0.00022677833795581117 
0.00017109315852156625 
0.00024205073442199897 
5.8496266323470666e-05 
-0.00024447285859135115 
-0.00015740542563603196 
-0.00029181057215146877 
-0.00054266803496100116 
-0.00038238267330565517 
-0.00046013550236491277 
-0.00050650972473989531 
-0.00036992212694611027 
-0.00033016343871941812 
-0.00057179775415344713 
-0.00039159514889718723 
-0.00033321891866859089 
-0.00046973752808704476 
-0.00022802267314904324 
-0.00023411732403130311 
-0.00038439236940681661 
-0.00011228806432597892 
-0.00015484261906461482 
-0.00041585266164928525 
-0.00023688149320642737 
-0.00022818146419464704 
-0.00052029843401157016 
-0.00035557632220155919 
-0.00038257497329016645 
-0.0003520439231790237 
-0.00024243618409744956 
-0.00028514790096119982 
-0.00034522569355518681 
-0.00024697092119650146 
-0.00035965499272612266 
-0.0004674718277533329 
-0.00045385415501767633 
-0.00053713364319531013 
-0.00034130620792486232 
-0.00025674125022500613 
-0.00038702248076581306 
-0.00015442658589954754 
-6.336475618267843e-05 
-0.00016419460849786353 
-4.4392988298347874e-05 
0.00013241057265469977 
-6.6689072843717249e-05 
-5.2846910768081268e-05 
0.00013559317170210863 
-5.729401413939492e-05 
-0.00012211901833840137 
9.3347731330209281e-05 
-0.00012536062792980218 
-0.00010607914891755344 
8.5997030045129359e-05 
-0.00013451161223819626 
-0.00015574796815575833 
2.2360412268315121e-05 
-0.00021133825137953062 
1.0276383862435536e-05 
-2.2979145678647661e-05 
-8.159235472014036e-05 
-4.3275937520339866e-05 
-0.00011019788703016502 
-0.00013638751926904499 
-0.00020474233662453974 
-0.00014064082979897192 
-0.00030695838586396732 
-0.00035528726769029525 
-0.00022232826913986495 
-0.00042893440311142403 
-0.00040992134426896646 
-0.00029909263467317436 
-0.00043422733172635659 
-0.00071311515138846129 
-0.00050773571591212249 
-0.00062956047518031028 
-0.0010606085054060044 
-0.00078464019661547398 
-0.00076079497723277026 
-0.00084175009890548607 
-0.00043272943739361289 
-0.00037134301776748648 
-0.00049474201727005773 
-0.00011684026484940486 
5.6513366232099557e-05 
-0.00041256920601944711 
2.0930219272979959e-05 
0.00017671505685841292 
-0.00028554649238659397 
4.5420007317219078e-05 
0.00027977756066142282 
-0.00016403983835578935 
0.00020852171094659018 
0.00039614533475212769 
-0.00016166644251442284 
0.00019664605713583705 
0.00040015397712888186 
-0.0001691499620180893 
0.00022413620038487086 
0.00042998022989324853 
-4.8887217545206697e-05 
0.00036577443933147455 
0.00061238395522818538 
7.7197462015152535e-05 
0.00047310470869866173 
0.0007070081325638957 
2.6085169288892351e-05 
0.00034241310254057029 
0.00056401861012517814 
-8.1087965184362695e-05 
0.00020507085507993577 
0.00037103325115310829 
2.1835624072905583e-05 
0.00029933020690912416 
0.00040269530732571648 
-3.0157981599175314e-05 
0.0002098870343010674 
0.00026653566662368354 
5.5337741552320189e-05 
0.00014452104065827359 
0.000241029108365001 
-0.00010416884741030641 
-5.2860113085472998e-05 
6.0960401117524489e-05 
-0.00015508903966205358 
-6.3369815387532419e-05 
-2.4026486270989316e-05 
-0.00019131037226477086 
-4.8604116137993405e-05 
-2.2425889569112013e-05 
-0.00018538653126597214 
-1.7395018682855439e-05 
-4.8423130445447596e-06 
-0.00031895069272676172 
-6.4563254690770886e-05 
-9.483476222642459e-05 
-0.00046738612690325361 
-0.00023403621470225624 
-0.0002345390209786787 
-0.00054873400462236775 
-0.00026797724213122666 
-0.00024539035819315125 
-0.00061856588149168104 
-0.00034018387680255708 
-0.00027717058696638894 
-0.00068672412943571008 
-0.00031552348368428794 
-0.00023134962815590549 
-0.00048488477840127864 
-8.4867491145345692e-05 
5.9524471927440955e-05 
-0.00023061079922596228 
0.00022417821576907162 
0.00039328907430083047 
-0.00017195813921857354 
0.00021598977548283895 
0.0004996075110799827 
-0.00038058085832618583 
-3.8444505563182111e-05 
0.00028612210741377301 
-0.00042559838226383909 
-7.3062289176223575e-05 
0.00020351187253443541 
-0.00045943938598193068 
-0.00012705762732206972 
0.00013930899666417083 
-0.00029861559408684419 
-5.6364303178683674e-05 
0.00018202226591880556 
-0.00031523566984248316 
-8.6793650585558971e-05 
9.422546841403827e-05 
-0.00033640618538294188 
-0.00013810644470431152 
-4.1648008699625288e-05 
-0.00021373697138342052 
-3.6829764762579655e-05 
9.022594609396713e-06 
-3.4536668376350193e-05 
8.7947028775848e-05 
5.6215343260952997e-05 
-0.00019164729074684289 
-7.4524763813600198e-05 
-0.00017299614107516267 
-0.0002433373536844987 
-0.00022468535812620536 
-0.00035291552470873813 
-0.00022632756256442282 
-0.0002499237509757501 
-0.00037916580830494402 
-0.00021289110931891088 
-0.00022699185635093456 
-0.0003387355798086173 
-0.00025632242560670197 
-0.00021157135592770061 
-0.00032578107659501042 
-0.00028293581960793198 
-0.00014615453370974302 
-0.00023342258681477668 
-0.0002945561868612743 
1.1182590275141393e-06 
-4.2155757903139457e-05 
-0.00034944122771304517 
2.270631021064051e-05 
9.4584528072256293e-05 
-0.00051082411919503861 
-4.7988459935704657e-06 
7.0860179406385089e-05 
-0.00043522235113626294 
0.0001983500185305738 
0.00016919826159658122 
-0.00040161040934695992 
0.00025026312887491641 
0.00016915783017089236 
-0.00045891558551310594 
-2.1995688328046412e-05 
-6.1349691942763596e-05 
-0.00049423270362704199 
-0.00011542479184420893 
-0.00018646862626074741 
-0.00039309999806011686 
-9.0094432394381336e-05 
-0.00018654049405266202 
-0.00041365167170791316 
-9.6267203126529382e-05 
-0.00026999821314229383 
-0.00032340181398563119 
-0.00012462874132488348 
-0.00034190815149832238 
-0.00015639459610660342 
1.1762567243345842e-06 
-0.00026509109493400213 
1.4314874798706251e-05 
0.00016664384525982018 
-0.00013621305476498467 
0.00014114356154961642 
0.00031663434904668629 
3.5338171946786419e-05 
0.00025476484007629497 
0.00042271869377150291 
0.00021682606593575703 
4.3649359251047959e-05 
0.00026039624719732292 
9.0598067246782106e-05 
-1.48290789663511e-05 
0.00020961560630250082 
2.5428703684312681e-05 
-1.5050722036525821e-05 
0.00026693399181764414 
8.8917548815955412e-05 
-4.4804954398115822e-05 
0.00029084119266104279 
0.00012541381458209386 
-7.5375394716144944e-05 
0.00026799190127745005 
0.00012175259100118292 
-0.00019015708672797578 
0.00027812724412168947 
0.00010381661324917359 
-0.00051166634025183509 
3.2408687518881817e-05 
-0.00013081354560783883 
-0.00087334637640311484 
-0.00034727885180388228 
-0.00046881261830120346 
-0.0010530448143728031 
-0.00046506739338594074 
-0.00064304362541945694 
-0.0010438067258652954 
-0.0004680053693763507 
-0.0006417645022991108 
-0.00061442953793431623 
-1.6695070917675739e-05 
-0.00031053780423650172 
-6.4678172349944707e-05 
0.00034677106114165663 
3.5395807561257519e-05 
0.00012663254899016171 
0.00049911986231760091 
8.9873396542097293e-05 
-0.00010293677484488252 
0.00013286380431573602 
-0.00034561741929889719 
-0.00015979157512940485 
8.6728836854598788e-05 
-0.00043369424026966922 
0.00014663038320216452 
0.00030909449803974653 
-0.0001768961720010546 
0.0001810598339725819 
0.00031934261816064953 
-0.00013776320459724862 
0.00024548538147468483 
0.00032779321860262672 
-0.00010005858805539065 
0.00021978830857116499 
0.00025177275758341602 
-0.0001370142714866213 
0.0002108514297185894 
0.00021026740024979136 
-9.8920772993676807e-05 
0.00027875757426863159 
0.00034113069836276511 
8.053449843267908e-05 
9.1990283448482979e-05 
0.00025550730595084705 
0.00010703927990997683 
-0.0001810384422368215 
0.00011118172724707273 
-3.2253757768488655e-05 
-0.00024093945379409582 
6.8896107744739114e-05 
8.8676601520126531e-05 
-0.00020804528100280096 
0.00016320547854135366 
0.00022019776111137644 
-0.00029290337371032393 
0.00017956306242391807 
0.00019415162390794136 
-0.000332597047792778 
0.00020256501005332279 
0.0001222687183559619 
-0.00048539286691506422 
-1.3449034207567944e-05 
-0.00012418746728526853 
-0.00071755900618188898 
-0.00029197745263146867 
-0.00042140498160658584 
-0.0007358311052658408 
-0.00042865482163984589 
-0.00051320318422834379 
-0.00058046479144268498 
-0.00033127293496939858 
-0.0004178853076184188 
-0.00046591994349694764 
-0.00035310896022077841 
-0.00036174876527436076 
-0.00033466454230245715 
-0.00026672687149515616 
-0.00030314096968700954 
-0.00015831466766730117 
-8.0579152842451601e-05 
-0.00019678219903235521 
7.7758657491537746e-05 
0.00019840163502328373 
7.8704001612395639e-06 
0.00011073008723322969 
0.00017770258865008209 
-1.6727899742609455e-05 
7.834859555161039e-05 
0.00013893728850520391 
-0.00010238242017468122 
0.00012596044239832595 
0.00023017304878419036 
-0.00011135850698635864 
0.00010534855731899535 
0.00026477053877979649 
-0.00010530225396480484 
-2.5511623549910782e-05 
0.00015691719365853416 
-2.7389026310194147e-05 
-0.00020152277091363681 
0.0001159740134012024 
-0.00012187170354406266 
-0.00014960796062633253 
0.00020409896099945538 
9.0720587166967309e-06 
0.00017372447286997735 
0.00064197981848993261 
0.00036558035656374555 
0.00023233145188894966 
0.00066478148961640832 
0.00039380161787632497 
-0.00010373550182622616 
0.00042156252303149453 
7.7185333305395017e-05 
0.00033127790517516073 
0.00071864743097767129 
0.0001650808637710631 
-7.3021491351511796e-05 
0.00032203585876694517 
-0.00022193962341282163 
-0.00061531653986421429 
-0.0003837172641211549 
-0.00077065538981348723 
-0.0006436373580215387 
-0.00038113177096284889 
-0.00076338644914610964 
3.0673898670662716e-05 
0.00027521586485975639 
-9.9254977038830194e-05 
-3.7705867667507469e-05 
0.00017550047406206433 
-0.00014092673618091249 
-0.00023773473022723355 
-0.00016461369646042758 
-0.00040588603135417744 
-0.00030292711411730153 
-0.00024763593756128556 
-0.00045380703910233929 
-5.5042857668516759e-05 
-4.9067444526407061e-05 
-0.00026874300126938157 
0.00028260495548906303 
0.00031662467133683372 
7.9964337625338598e-05 
0.00039110546779732214 
0.00039691546143441614 
0.00021586517822907078 
0.00021328959817695052 
0.00026738613779119495 
9.8418159732815657e-05 
-9.2408900432238103e-05 
-2.7211031521749174e-05 
-0.00016893064351478426 
-0.00014160021921246613 
-2.5014335668229247e-05 
-0.00011742766549816181 
-0.00016141250331676714 
-8.7728903255398981e-05 
-6.4420274062493806e-05 
-0.00028327399720495496 
-0.00017146814709763884 
-9.7299340713206283e-05 
-0.00022324431655472771 
-4.6631892374834266e-05 
2.2356090902051248e-05 
-0.00026379918424182807 
-8.7817268333770178e-05 
7.2989861642710109e-06 
-0.00037003931337952411 
-0.00023318020256916881 
-0.00013124980246510893 
-0.00037077189097211151 
-0.00025863623185707702 
-0.00021582796773389677 
-0.00025297434363013573 
-0.00022417004174431901 
-0.00020919523709215127 
-0.00033603255122701629 
-0.00034087238862104765 
-0.00037990830339696682 
-0.00040553108355548425 
-0.00050743312656298606 
-0.000488784163030824 
-0.00019482664657761791 
-0.00026637574245430828 
-0.0002887546525314178 
-7.0923373171991638e-05 
-0.00010538682770884967 
-0.00010512247989379533 
6.2385721874682826e-05 
0.00010794756589949743 
5.0400667510545988e-05 
0.00012645835044081528 
0.00021251048037785223 
0.00019181154297179669 
0.00021011988496955194 
0.00036658151023247611 
0.00031319226890055011 
0.000300297840875033 
0.00047869313005266198 
0.00041669761623841197 
0.00029549967593926117 
0.00041070832298339028 
0.00038436131606328264 
0.00040513199621504045 
0.00026905842027354196 
0.00036718284139779678 
0.00012063334207439933 
-2.8213514835896217e-05 
5.5540470846193693e-05 
0.0001063068901533369 
6.325852873922952e-05 
8.7456067904153489e-05 
-0.00014769822155312606 
-0.0001064734884770035 
-0.0001661958568868561 
-0.00019638553284720027 
-0.00024183198184090404 
-0.00022607389338984285 
-0.00050194862345475386 
-0.00045831357843233666 
-0.00044225503597663466 
-0.00084423741801655633 
-0.00070216317201893036 
-0.00055641212042838986 
-0.00072139905662589956 
-0.00040725302468520267 
-0.00025890078620025746 
-0.00049174498848935603 
-0.00016769850421364965 
8.4660545851285903e-05 
-0.00036276823864725167 
5.8270317064356713e-05 
0.00030374874648772147 
-3.9681011882830272e-05 
0.00027564832070490011 
0.00057813593846513592 
-2.9045775400560577e-05 
0.00029667999545531816 
0.00057604284226697039 
-0.00015133830737832263 
0.00014901554692463642 
0.00045518960001004712 
-0.00028403599800585127 
7.1643238712467224e-05 
0.00035403598968798255 
-0.00021636886552736835 
0.0001414938769203539 
0.00043977345789772936 
-0.00011765664220459496 
0.0002367501335493539 
0.00052919187072920178 
-0.00020489935638679603 
4.3668057822464687e-05 
0.00033474384518129461 
-0.00021111625454721457 
3.692367438670496e-05 
0.0002679243424167627 
-8.6830963371737859e-05 
0.00011905359016598588 
0.00029424423088178936 
-6.329975658154392e-05 
9.3091040163483698e-05 
0.0002133822270404845 
9.8922160115216698e-05 
0.00013158800609992918 
0.00028695905309544703 
0.00012113295689738694 
0.00014514191779932842 
0.00028632321941040413 
0.00020402435644068976 
0.00024426651250511412 
0.00040223868340347066 
0.00023801462796912751 
0.00038218865744080486 
0.00049276585823190312 
0.00020529533397579735 
0.0003741226325833098 
0.0004580349983923959 
-7.4693343569740703e-05 
0.00012811958453479006 
0.00017502029369376913 
-0.00027100998196694743 
-0.00011059633574869425 
-3.1441245387744466e-05 
-0.0002330689261058013 
-2.6735752286231628e-05 
5.4351889974994452e-05 
-0.00018037088500446482 
1.5743726959686548e-05 
0.00013673162724330728 
-0.00027498868823768553 
-8.9707960621905969e-06 
0.00013478762150875113 
-0.00020002821822893442 
0.00013945848151790096 
0.00034334050258329549 
-9.8460244142641463e-05 
0.00028626384110208445 
0.00050787905983277744 
-9.6255516395775444e-05 
0.00026870186086891444 
0.00058719983286494102 
-0.00027050871775858112 
9.0035470133741698e-05 
0.00041332838035035416 
-0.00034935374206592162 
-3.5689512492325314e-06 
0.00028236624985579105 
-0.00036818210927994002 
-4.7982032108829432e-05 
0.00017941972749618907 
-0.00017026139025563608 
5.6431155222009097e-05 
0.00029789080111241022 
-0.0002370253611582251 
1.5674684152227512e-06 
0.0001721851109526036 
-0.00020782864861138478 
-4.4211326191767256e-05 
8.8335906158336776e-05 
1.1841231152952601e-05 
0.00018124184111498746 
0.00025131747758797333 
0.00016134983846215724 
0.00026985751739396873 
0.00031991080289194414 
0.0001853206270375761 
0.00027804625282765931 
0.00026078758044068549 
0.00027375857440265828 
0.0002638029497987229 
0.00024337602953746783 
0.00033799011764594337 
0.00037217406027722274 
0.00031158092904739294 
0.0001755267321978787 
0.00022697142655261001 
0.00017221093015618662 
-4.4292278856935131e-05 
4.1259566473018733e-05 
6.1078127706560852e-06 
3.9676937080487064e-05 
0.00020120172689332868 
0.00018282535639039402 
0.00012882323053255927 
0.00040976023289924688 
0.00044455379976257982 
5.0795144803406506e-06 
0.00041686100687002081 
0.00051238667646705607 
-0.00019471035711355226 
0.00029870365080835164 
0.00039433538376962534 
-6.1075674185581189e-05 
0.00051341652449382851 
0.00051856775829659267 
-9.7212675627581026e-05 
0.00043396940112154145 
0.00039146040694890778 
-0.00027025985292582281 
0.00010008439250865087 
5.4530241112418383e-05 
-0.00043663701751647533 
-0.00014161624236768116 
-0.00019229436134355753 
-0.00028677575683466386 
-5.6844618471515829e-05 
-0.00011563045749256506 
-0.00020463841316175859 
-1.3416299579306627e-05 
-0.0001049020088611308 
1.7169148894573409e-05 
0.00011665656143117801 
4.2196041206146331e-05 
0.00020201020380146634 
0.00029319924230164962 
0.00020778434841486288 
0.00028343831824105943 
0.00036943160527850861 
0.00024337312350811385 
0.00039557553743519314 
0.00051548054837525007 
0.00040539777557310541 
0.00055160343052521217 
0.00061504726214402575 
0.00058947855478906641 
0.00043641087342089803 
0.00058334734801922619 
0.00052758110129439741 
0.00025642251933184784 
0.00041866611625835076 
0.00032316369584407334 
1.2837486112424981e-05 
0.00026579995633474625 
0.00016371466436095302 
4.1004441046908341e-05 
0.00032623419454912102 
0.00024874354253218156 
0.00017501783007902464 
0.00050069257571958459 
0.00044500339160830158 
0.00020314455081979309 
0.00063424797873871432 
0.00056044833340888466 
-0.0001928094337595054 
0.00026466883700043887 
0.00019925542091016037 
-0.00075416570226077883 
-0.00032817720485105861 
-0.00034887854602155854 
-0.0011072225158424479 
-0.0006565610717017737 
-0.00069179938887569618 
-0.00094356356014048469 
-0.00053928405962011886 
-0.00061450245818293284 
-0.00070365037814128879 
-0.00025346453572729912 
-0.00044080586240237537 
-0.00029205891411930763 
-2.8804901578980117e-05 
-0.000228044906582392 
-9.6933105702791384e-05 
0.0001686143060713182 
-0.00013467166640538747 
-3.8401296806666125e-05 
0.00015312085652084811 
-0.00023790043316037482 
-5.6912816188739221e-06 
0.000173643250160264 
-0.00025274164312762083 
0.00033813900693824858 
0.00048804730820970052 
4.290944973537741e-05 
0.00053215749080575011 
0.00063305656458691932 
0.00024115071534128556 
0.00052669248523792627 
0.00061238900607145103 
0.00027236349860824976 
0.0003595448107562448 
0.0003947423110823127 
0.00011044331906919232 
0.00024769808962573844 
0.00024154741561146584 
2.1289173810271547e-05 
0.00029314846757693265 
0.00034836760905145628 
0.00019367159465746541 
0.00022279388578967148 
0.0003499415518840338 
0.00026079331362324732 
6.5835039536192417e-05 
0.00032631569426430103 
0.00027911353836561798 
3.0417610493790395e-06 
0.00026281975865123381 
0.00034156994725419328 
-0.00013273614305564599 
0.00019548593632089475 
0.00029493093741773604 
-0.00030369550534104986 
0.00010888593186707715 
0.0001806393079719469 
-0.000311097402014375 
0.00012312458080053018 
0.00017829524211284017 
-0.00031945940025624006 
8.9591128018101901e-06 
0.00010486239763286419 
-0.0004825181522197736 
-0.00023419527136818457 
-0.00014546499900990335 
-0.00026256261673280473 
-5.8865369214608282e-05 
3.3560036610114155e-05 
-2.9280809938518781e-05 
8.1053362683259779e-05 
0.00018238260254812761 
4.0841266064566149e-05 
7.1943479529329722e-05 
0.00018437877578568481 
0.00016935208346008279 
0.00019247085487130407 
0.00023881301048219873 
0.00036976290386651623 
0.00039959223892183473 
0.00035903414445759426 
0.00049885886402067448 
0.000544913565386708 
0.00042031494089002987 
0.00030927449799874847 
0.0003303155936576954 
0.00020505645752753291 
6.8183640112982389e-05 
8.9574432160946101e-05 
-0.00011147313643041886 
4.2084073362085814e-05 
8.0509714640369191e-05 
-0.00017523765817043104 
9.0909568236382169e-06 
0.00014764289695300898 
-0.00014909095893615853 
5.3768040735565194e-05 
0.00024098119145083433 
0.00010518954531381567 
-0.00016332094882493917 
0.00010624998189595176 
-5.9441712212967627e-05 
-0.00046454713735111073 
-0.00010554743014203551 
-0.00025859390985317804 
-0.00034879751329887311 
0.00013515952756403674 
-0.00011600728383430524 
0.00024521323346803021 
0.00069579947702759395 
0.00044436794152365048 
-5.2859113519254764e-05 
0.00049025721406695168 
0.00014682861242667114 
0.00045884152223851738 
0.0008225431123903156 
0.00030970280105363621 
0.0002578325486837647 
0.00064657045278730446 
0.00017142733762643477 
-0.00034023631409152525 
-9.3748656578051325e-05 
-0.00046742366691560858 
-0.00029121476868447277 
-3.9850567114660218e-05 
-0.00037163043421422444 
0.00024429772061847427 
0.00047767019862026685 
0.00018119185722226442 
0.00019382938055921963 
0.00038660132867239755 
0.00010466036758259407 
-0.0001384735346522097 
-6.0535530523631084e-05 
-0.00023823013503567915 
-1.4129078886447945e-05 
6.9309823070627262e-05 
-0.00012758289792911935 
-3.2053745674981586e-05 
-2.838973718016171e-05 
-0.00020888389297823377 
0.00012091747810992392 
0.00015342160975991947 
-6.5900029431051484e-05 
0.00019359601274508115 
0.00017937782655059228 
4.006927459989376e-05 
5.7937534260710417e-05 
7.8111435639545838e-05 
-8.9950682930029183e-05 
-8.4213405470925134e-05 
-3.8973261888750182e-05 
-0.00018023277381238903 
5.1380190729513203e-05 
0.00011807903322415522 
2.185436498740054e-05 
6.4473548216612166e-05 
0.00011710130143450448 
0.00014448300328913857 
9.0273966767623978e-06 
9.5182922390522968e-05 
0.00015088791918627966 
-0.00013274010926116471 
-5.4301424319845408e-05 
5.4617882215590128e-05 
-0.00033181262559171419 
-0.00021896419757581634 
-0.00011936768522201786 
-0.00024030230257021396 
-0.00016157646719548355 
-2.7892606934334283e-05 
-0.00011294559203876236 
-6.1942271332478184e-05 
-8.0166354791257362e-06 
-4.0013860113646184e-05 
-4.6621210534278961e-05 
-4.235348750260656e-05 
-0.00023528064638283296 
-0.00033493514827509215 
-0.00032265421205109735 
-0.00029133599706124421 
-0.00047641874724882824 
-0.00042863112565047099 
2.4861498695507061e-05 
-0.00014461751610071779 
-0.00012655980775767641 
0.00015656176849356606 
7.6040133828376424e-05 
6.4969524003269291e-05 
0.00030172878749450951 
0.00027198013390849894 
0.00026480834487075094 
0.00026172438111887617 
0.00027353735345751138 
0.00032004315085141171 
0.00024317044303572588 
0.00032259934881677838 
0.00036580547108078384 
0.00029096732349636321 
0.00038029726099969542 
0.00042505135093185808 
0.00029673454800547265 
0.00035507965843466108 
0.00040670209565877376 
0.00033019166968081918 
0.00018354133405195267 
0.00034401500314258681 
3.5958952608569586e-05 
-0.00018171546862980092 
-3.1443241183385089e-05 
-9.7647233771765206e-05 
-0.00019970030354488687 
-0.00011849483702941066 
-0.00026676509860586682 
-0.00034404581987430003 
-0.00029368049843917925 
-0.00036235051874631728 
-0.00054769478655086778 
-0.00043850933646223298 
-0.00060786177951171767 
-0.00065973594586227007 
-0.00053729522366444279 
-0.00057003829092515791 
-0.00049487244408731048 
-0.00026831240591332096 
-0.00040680211269100767 
-0.00016908373864157233 
0.00010541997320503692 
-0.000439935967856175 
-0.00010870242644230634 
0.00025916674345789244 
-0.0005127459464373238 
-0.00014782399210713857 
0.00021999955363151511 
-0.00017994187946052085 
0.00013096686052055018 
0.00052951516054267436 
-0.00011515125622665308 
0.00021197878685658424 
0.00056084841599739492 
-0.00031079855699500875 
-1.5905118577055114e-05 
0.00033150809563865503 
-0.00029818185587516795 
3.363368232218803e-05 
0.00035660483604349252 
-0.00023098777447191779 
0.00012599034062201432 
0.00047232976575345984 
-0.00033021669634782943 
8.1749926750662095e-06 
0.00034284755257032057 
-0.00034308661115336022 
-9.751677538730534e-05 
0.00022203808467729063 
-0.00022554723229783555 
-2.217281260983751e-05 
0.00022374577107537241 
-0.00011510180316482815 
4.8208608773062122e-05 
0.0002145425213509966 
1.6547808577498532e-05 
0.0001237528081224557 
0.00028241475995108967 
0.00010322543419491441 
0.00010618287633104805 
0.00029519630195080481 
0.00013009425540541836 
0.00012768609453351894 
0.00030229315545744431 
0.0002737621636132809 
0.00030480877582019308 
0.0004991894968596252 
0.00038504620812724688 
0.00049155703697479302 
0.00063548286175677741 
0.00040723671144423062 
0.00054433613366533431 
0.00065291172962590315 
0.00010534469055482591 
0.00025358960055454986 
0.00032807472233997459 
-0.00013577351041411188 
-5.1700169941539502e-05 
4.4817731000658119e-05 
-0.00010331353478717153 
5.454373424168596e-06 
0.00010546568899695656 
-3.3556081805432967e-05 
7.2154086075426965e-05 
0.00025429924061495888 
-0.00018616705949697844 
-6.2679570302476753e-05 
0.00014926382911449352 
-0.00053852001357045196 
-0.00026776639311893894 
-4.9267761792361859e-06 
-0.00065505921011987228 
-0.00031288720438945071 
-3.1985107000760099e-05 
-0.00063583206705648419 
-0.00028558908296896801 
5.7448215990623698e-05 
-0.00058769625250204766 
-0.00021192281589880104 
0.00010296995626812153 
-0.00058030936240688368 
-0.00021011183560210419 
3.7396102061879204e-05 
-0.00037087076773770542 
-6.9462878290820382e-05 
0.00014876992410290261 
-0.00017550216797447714 
9.9597506961551408e-05 
0.00029328651757734228 
-0.00017779631982067521 
3.2402868105014135e-05 
0.00016546733450731137 
-9.0675774391559959e-05 
6.5034163193885828e-05 
0.00015559090031759477 
0.00016114236977801791 
0.000281519102567715 
0.00031327551163491771 
0.00025962629483878473 
0.00032717116359301827 
0.00032763964606385146 
0.00030938266917868742 
0.00037980292681800255 
0.00032691653712694363 
0.00043120064800261572 
0.00041170137156951641 
0.00037177588354022289 
0.00027312581438408451 
0.00024778129447622431 
0.00019033308826267906 
-7.662277379934151e-05 
-6.1868461128532912e-05 
-9.5626344328087956e-05 
-9.3609183724742144e-05 
-9.5036123910555058e-06 
-4.4138491667499035e-05 
8.5091173335364456e-05 
0.00022850631999275236 
0.00025162956522401176 
0.00014915788481925153 
0.00042899383787055242 
0.0004837663917166042 
-3.5063845312797657e-05 
0.00035492010237143755 
0.00047088578962897152 
-0.00016654052968855996 
0.00032777127169414291 
0.00043201539075496214 
-0.00013673407889270995 
0.00039397984353484519 
0.00043500158283746413 
-0.00032313064560533496 
0.0001348545656434249 
0.0001310977161142004 
-0.00049775964522809585 
-0.00018576221581823043 
-0.00018655894372679319 
-0.00056088208064616289 
-0.00036503005415777697 
-0.00037554039870206301 
-0.00031834540915992842 
-0.00015781936537163409 
-0.00017624698853025661 
-0.00024404193920952441 
-0.000124360695675812 
-0.00018449570524285146 
-5.2654097871006337e-05 
-2.2206680213941597e-05 
-6.6481005196072321e-05 
0.00013561373790332617 
0.00015018218927871196 
0.00012024151145056429 
8.0970192171488364e-05 
0.00011785291733488031 
6.474965189743485e-05 
0.00020379276517321386 
0.0002452082052917381 
0.00019733591155167676 
0.00023725111856755726 
0.00026827040095305589 
0.00026614831292515309 
0.00023456685044693782 
0.00026439148325975383 
0.00026927323074414904 
-2.7004477302142469e-05 
5.7923144743201224e-05 
2.8382916533077904e-05 
-0.00042164813998920117 
-0.00025493894248306893 
-0.00031417909136626746 
-0.00038897666210569793 
-0.00018914652726420743 
-0.00019341257274273476 
-0.00016718710146368997 
0.00012141023491202805 
9.4657567028003461e-05 
-4.7039546527608449e-05 
0.00032718202875871039 
0.00032482845172690419 
-0.00038065162398430165 
7.5757525354512036e-05 
0.00011549572375661758 
-0.00089597642675375033 
-0.00049982348937798859 
-0.00042648984221055412 
-0.0011496782166037114 
-0.00079511171210780906 
-0.00073433943288365229 
-0.00089553825860508697 
-0.0005823185064022273 
-0.00054890679720076888 
-0.00059611293538852129 
-0.00026186126917008862 
-0.00033424166397560701 
-0.00044627636412978037 
-0.00024180079460620643 
-0.00032699735936017219 
-0.0005514538922408432 
-0.00037525854044953739 
-0.00059833713711961178 
-0.00045111157236131527 
-0.0003695638009479416 
-0.00062761789927417186 
-0.00035816571807931722 
-0.00025228853743720789 
-0.00058917226757451984 
4.4372384280988935e-05 
0.00012617616414585384 
-0.0002041061078520268 
0.00026784391063969053 
0.0002920262744363915 
-2.2920794184167802e-06 
0.00013907937615496602 
0.00019869069989267868 
-6.6140633092474685e-05 
7.7819465474635502e-06 
2.9312545644722608e-06 
-0.00021096359189429502 
1.604509266812699e-05 
1.7296836105201836e-05 
-0.00013954218343895395 
0.00011065701970821406 
0.00013570118260405772 
2.4043236210531993e-05 
0.00020628472918235728 
0.00035141034045523093 
0.00028751520711503515 
0.00030630860421546025 
0.00052946661163549217 
0.00054929231328129375 
0.00032587378634177199 
0.0005692927475314856 
0.00069807645176852727 
4.0322072002415191e-05 
0.00031172982163824709 
0.00048750732495276173 
-0.00028413872670371692 
1.7003180151587583e-05 
0.00019097241091427019 
-0.00029057105208306659 
2.681741754229018e-05 
0.00015240048421920994 
-0.0002381437435310542 
-3.2985242964648899e-05 
0.00014768266063548477 
-0.00039340681256200624 
-0.00025979298397810495 
-0.0001037110523119203 
-0.00023219873517429631 
-0.00020269993839807819 
-1.8581528049669932e-05 
-0.00011288689039365111 
-0.00013459173880642753 
2.7394635930259568e-05 
5.7095494837060353e-05 
-3.2188769882314981e-05 
0.00013359192717288663 
0.00028093334776707363 
0.00019230453120989245 
0.00027177597494433932 
0.00038814280234533986 
0.00031236511347442462 
0.00029716612231614953 
0.00051024142485991671 
0.00049208414611851936 
0.00037650153383935424 
0.00036266370831262502 
0.00031250104999136724 
0.000190161331925662 
0.0001415590289259076 
0.00011750299873261006 
-8.2078330791848092e-05 
0.00012712293620852755 
0.00011295432134287438 
-0.00013131046506185251 
-4.6884007286577029e-05 
5.5103433609943664e-05 
-0.00020957335305590903 
4.8970945432059572e-05 
0.00024946034490589986 
0.00010170442447087915 
-5.907769403252049e-05 
0.00022650486626598775 
9.1479341175512493e-05 
-0.00056007879408872206 
-0.00019242903520846316 
-0.00032515594789450728 
-0.00062400442858029381 
-0.00020485582931761921 
-0.00037712937710257662 
0.00017755010939683386 
0.00059369735436281515 
0.0003861364132995655 
3.0103816806466017e-05 
0.00055642574939608125 
0.00024468390224906999 
0.0004893947450294769 
0.00084653220300430401 
0.00045657714509027682 
0.00050042937483997367 
0.00085146087365863758 
0.00049308535286334129 
0.0001181049405332075 
0.00037049602467376758 
6.1592851015005457e-05 
4.2729780237347289e-05 
0.00025735574714885474 
1.6156844108853957e-05 
0.00043250346862489062 
0.00061018807931001299 
0.00038704991611352769 
0.00023170663940751639 
0.00039917019515863769 
0.00020122216073935331 
-4.0411318244198873e-05 
6.7717636383728065e-05 
-6.2946261836550288e-05 
0.00010748162468823909 
0.00022178800740913613 
9.9805357275108557e-05 
0.00030546223963797325 
0.00036810119870834938 
0.00023849444509662325 
0.00040270460546909444 
0.0004448600930797582 
0.00028153848307218838 
0.00044490785584339412 
0.00040962331497372193 
0.00029714942108485272 
0.00021781904554046971 
0.00018170443342547119 
7.5033082790212035e-05 
2.2283104885271912e-05 
-1.592897890296942e-05 
-0.000120719675117988 
4.4358395712043372e-05 
2.6594848607804452e-05 
-4.9058043281167655e-05 
3.2906240422561389e-05 
-2.0729829808800684e-05 
1.3232226946921287e-05 
2.6307282020211611e-06 
1.4130350238710665e-05 
7.4723881392975934e-05 
-0.00013810374067530626 
-0.00010314018698308245 
-5.2170138059048504e-05 
-0.00022596935394101505 
-0.00018646098630128386 
-0.00011050514382525788 
-2.9431085096375899e-05 
5.3896526211891478e-06 
0.00012012679883651752 
-1.2838089781325147e-05 
2.4632877080688321e-07 
5.7396419008865728e-05 
-4.3096486925782493e-06 
-6.5361335006540683e-05 
-2.447587524485268e-05 
-0.0001632046802330265 
-0.00034296171546561863 
-0.00033129248987269516 
-0.00021611481787667521 
-0.00047833024480211641 
-0.00045644136903551707 
0.00018737296406704738 
-9.5764249027704545e-05 
-5.9828122511665455e-05 
0.00058839829647748282 
0.00039149905701227897 
0.00039695165395920524 
0.00078568203053649825 
0.00059823381137635748 
0.00062996387993429187 
0.00055536862718550306 
0.00043860095263833853 
0.00051046894211033032 
0.00020909196940153881 
0.00017602339570119152 
0.00025987046083956311 
7.8801394994427933e-05 
4.6394801767094831e-05 
0.00017587519948829465 
5.9026028949518442e-05 
-3.3981865865462119e-06 
0.00012042462583535843 
2.9566799308288666e-05 
-0.00022985270993027934 
-1.266282147382734e-05 
-0.00019399300779935743 
-0.00049261774517798029 
-0.00028861689084245466 
-0.00050001338447494222 
-0.00071972113835605967 
-0.00058323487431548055 
-0.00072063571284790447 
-0.00090022493051092377 
-0.00082590175438227603 
-0.00072658347430087174 
-0.00096436192135554563 
-0.00086501635934948347 
-0.00064278177612406631 
-0.00084151575092958168 
-0.00068725515383364006 
-0.00043343839954175376 
-0.00048642467516161716 
-0.00022227386136889146 
-0.00034250447590831025 
-0.0001780234026943239 
0.00014008370994522492 
-0.00050980440988284174 
-0.00021415367050182756 
0.00020180604442937477 
-0.00047601724178133748 
-0.00010983504174415916 
0.0003086564879681607 
-0.0001564368530400786 
0.00014227403791059449 
0.00057184816318522316 
-0.00012506286795942073 
0.00017807898483082447 
0.00059123661101970009 
-0.00039731056909804566 
-0.00011848361914029967 
0.00024686427574466762 
-0.00031245282419930268 
4.720217529148349e-06 
0.00035736489637070579 
-0.00022549957211665878 
0.00011449743779751756 
0.00046132910362320161 
-0.00034554663844226668 
-6.1341797804672485e-05 
0.00026847870671508397 
-0.00032173927068767445 
-0.0001146616771923198 
0.00021018748711951578 
-0.00019810157022992532 
-3.6127198572022691e-05 
0.00021062552879724515 
-0.00012293189073000156 
3.2806078911167494e-06 
0.00020610653122614338 
0.00016520157969329209 
0.00022155608347234856 
0.00036163171701449927 
0.0001791026417769025 
9.0531927991471269e-05 
0.00030828181832560626 
8.4449856913185799e-05 
2.9587803820952545e-06 
0.00020226934658795393 
0.00022794379411237325 
0.00016308519893605777 
0.00038108692597773784 
0.00029704783928063852 
0.00030723950140664006 
0.00047198264560310084 
0.00027010400314530006 
0.00033458460235172044 
0.00043871627496318787 
-8.9146888741220689e-05 
-1.0050773352172084e-05 
6.6764709780701471e-05 
-0.00022178076013679298 
-0.00023447751966170386 
-0.00016011437772392079 
-0.00024439496453499754 
-0.00023022204610080295 
-0.00016988510435097972 
-9.5487437456682507e-05 
-0.00015104941739392874 
3.4669244759047349e-05 
-9.0119875126963011e-05 
-4.1979432780615055e-05 
0.0001573900037545219 
-0.00052580291171091598 
-0.00032580149342992232 
-6.3857627810374565e-05 
-0.00070130042518172519 
-0.00040696326430232199 
-8.3713326162823993e-05 
-0.00068741924144978214 
-0.00037213873610471976 
3.2859945415016752e-05 
-0.00062243312086838912 
-0.00030196059719120544 
8.6878998851981382e-05 
-0.00061492593904914671 
-0.00025943919309719961 
-1.3907114439693196e-05 
-0.00034548065968739667 
-2.5167962575816267e-06 
0.00010675536707943289 
-0.00016347042393373046 
8.0229169053048965e-05 
0.00020907756439475533 
-9.7908621018836506e-05 
7.5644813073614631e-05 
0.00015119307088448395 
4.3274233190944195e-08 
8.7439486528268574e-05 
9.8803450416251479e-05 
0.00024801707138501049 
0.00029939281777905481 
0.0002506216820483274 
0.00047175451130665512 
0.00044396876966753943 
0.00038788858579080071 
0.00052516762963159154 
0.00047022151347578554 
0.00035545977957211159 
0.00049464998869600929 
0.0004145517998053632 
0.00026425753682854277 
9.0320609482008918e-05 
9.2743124848015433e-06 
-0.00015109370395540781 
-0.00021796620922899849 
-0.00030164452818150873 
-0.00037857343990298139 
-0.00014484119928182058 
-0.00014014351450057519 
-0.00019781067253606696 
-0.0001088332391895917 
-4.1046288460732229e-05 
-1.8674458381143038e-05 
-0.00024810470906927402 
-4.0063276195595135e-05 
2.3851333313970607e-05 
-0.00032162611542127658 
-4.8924862847577751e-06 
0.00012779781954454515 
-0.00030809359324223036 
0.00013868092830368649 
0.00023368189545666944 
-0.0003463757945342381 
0.00013150244564706266 
0.0001893144293379641 
-0.00056574744832078026 
-0.00017536238701882861 
-0.00015908355543377473 
-0.00067299853978198783 
-0.00047937723873449118 
-0.00045998787395582261 
-0.00060772316663945604 
-0.00051787187329659882 
-0.00053737598036617744 
-0.00030419390815212291 
-0.00025801818694054507 
-0.0003079405196351977 
-0.00017194397637442072 
-0.00018534039905154722 
-0.00024077725078112109 
-0.00010884979160845542 
-0.00020172522548188456 
-0.00020296789752199279 
-1.7707768799306306e-06 
-7.9957180284451803e-05 
-7.5923701948762203e-05 
-7.0721584536527677e-05 
-0.00015738378097663927 
-0.00018053367224862084 
7.6256459336173206e-05 
1.1754695869988534e-05 
-1.7822113561094996e-05 
0.00010067340919448494 
9.62401866722992e-06 
-2.2895683973683867e-05 
0.00012960971297963693 
6.4922182590967817e-05 
2.7363110749373507e-05 
-0.00016168697770152962 
-0.00016861525989775284 
-0.00021565155925200788 
-0.00048228707109219314 
-0.00044400763564335203 
-0.00049064471546245094 
-0.0004178305791466833 
-0.00032590545482301842 
-0.00034207393234025494 
-0.00034649160136337331 
-9.626321724634393e-05 
-0.00010294895793982411 
-0.00015327009913801345 
0.00026222286804994816 
0.00029586475246191652 
-0.00045956486832769597 
3.1122898172433683e-05 
6.3729485529204596e-05 
-0.00095120988695156065 
-0.0005112863987175489 
-0.00038008904678651088 
-0.00094969588769318141 
-0.00056529269370200102 
-0.00044303518381400963 
-0.00064881538527843325 
-0.00031843685922169793 
-0.00021344830649697096 
-0.00041521373467901098 
-9.8513905251209033e-05 
-0.00010568653887309462 
-0.00040558775332016358 
-0.00028793738165593108 
-0.00026228672464627417 
-0.00067573691481046232 
-0.00060536412571491488 
-0.00069780064786080422 
-0.00068748008033109472 
-0.00072068655525875337 
-0.00088401375058550185 
-0.00054454243673025414 
-0.00056896211642217497 
-0.00080788680812834209 
-0.00014591855364533163 
-0.00020108324703202354 
-0.00045009615787075584 
0.0001422153411529191 
7.3291134466300548e-05 
-0.00013062475360957324 
2.1993385773971271e-05 
-4.3567059467336984e-05 
-0.00020570972558997376 
-9.9928996136521139e-05 
-0.00022227370856585271 
-0.00029603102406569419 
-0.00015995492761378203 
-0.00027251607379632093 
-0.00025141187162979134 
8.2259785143532708e-05 
3.9209015502458079e-05 
3.5149694905447711e-05 
0.00017039337913772509 
0.00018631546740779549 
0.00022276102105560979 
0.00028897309925278832 
0.00039960696772874848 
0.00048955501847527841 
0.00019676768156978876 
0.00032937902298064617 
0.00050761700231413437 
-3.7433245707190358e-05 
0.00013456363335131262 
0.00033584628138929565 
-0.0003032586039384285 
-0.00012861129050518308 
8.6912197467998222e-05 
-0.00022832906886139195 
-5.2805563596758137e-05 
0.00012102970438802527 
-4.9549198821634791e-05 
-1.7321884583741755e-05 
0.00021882499076569256 
-0.00024873006250972094 
-0.00028718563488291585 
-6.3099426240953964e-05 
-0.00017103502726118771 
-0.00033380991347225239 
-0.00011101071289403342 
-0.00011812973004966167 
-0.00032989290725547472 
-0.00015310330157612716 
-0.00012597139258985801 
-0.00036506374715633777 
-0.00021534134767476834 
-3.8631648751298779e-05 
-0.00027314543407287392 
-0.00019824641024780246 
-0.00011165743222266213 
-0.00031952185071528448 
-0.00038308726129402602 
0.00012561358099648178 
-4.1916243863031951e-05 
-0.00022299053085340331 
0.00036359874128453335 
0.00017666433301543921 
-3.4563753449292934e-05 
0.00018936745946268509 
6.8649110442161248e-05 
-0.00022967881728514687 
0.00017459550988336902 
0.0001585345335454528 
-0.00016755032696226939 
0.00022183431253699657 
0.00029774300084752778 
-4.8932667633832985e-06 
0.0003549919568872555 
0.00048433691125226834 
0.00031862267047959102 
0.00018369102677822993 
0.00042191761689435581 
0.00028745803615398658 
-0.00032418472683081882 
-2.0705998229925592e-05 
-0.00014340289479040845 
-0.00032668130997117497 
5.1430827248519747e-05 
-0.00016196156939394005 
0.00038562643405843923 
0.00074972283985686816 
0.00053616255964129042 
0.00027463959483528988 
0.00069357918510173032 
0.0003991078014992648 
0.00044554219294588745 
0.00081197273795442196 
0.00046391533973502605 
0.00035388077099971578 
0.00072889928617827116 
0.00041373265246815919 
0.00033027331918249371 
0.0005926921227282448 
0.00035547336084759722 
0.00020135166594934239 
0.0004269271754876972 
0.00020992175342847834 
0.00039424489995805705 
0.00061208462715085028 
0.00042574795573653925 
0.00016790421492929162 
0.00034707959825337184 
0.00024025276092055006 
-0.00012730089086401884 
-1.736213800661063e-05 
-6.6697686107849993e-05 
-2.3391310246046179e-05 
3.6178414722717178e-05 
-3.3181984414173597e-05 
0.00034928576720390334 
0.00036800657780375302 
0.00026159787370904237 
0.00057113520931254382 
0.00059141968302631989 
0.00044372670824371788 
0.00083664066549588901 
0.0007864747913165326 
0.00068298987166072131 
0.0004867318635432591 
0.00041548230856908197 
0.00027335160796334857 
0.0001329276505626088 
-2.7947898331946479e-06 
-0.00011703666790722166 
2.9530811323970141e-05 
-5.6276482217751096e-05 
-0.00014859955728181479 
1.4938045828027747e-05 
-0.00011160506078486855 
-0.00010838468358593541 
-4.4520821081165556e-05 
-0.00015907933813031703 
-0.00014687364340484828 
-0.00015455682959845664 
-0.00023054090577416831 
-0.00023163867213296752 
-9.8567204435052674e-05 
-0.00016191730939625338 
-0.00012587995465754252 
-6.5228514036994813e-06 
-5.5369044217509568e-05 
3.4691435428855113e-05 
-3.1638674419077975e-05 
-9.1781071320410861e-05 
-1.8095203447952179e-05 
0.00012906010668546871 
3.236217835435811e-05 
6.5224631216177645e-05 
-0.00010899424863856493 
-0.00028472711744122013 
-0.00027696261494875398 
-0.00017343492558559795 
-0.00053293699273609528 
-0.00050918695046690897 
0.00017589453666809945 
-0.00017130294337526871 
-0.00018363587027317769 
0.00049794093240750732 
0.00024202960153899827 
0.00023151205776587999 
0.00078989799913747058 
0.00057401535074977112 
0.000560005109885103 
0.00050034701948823768 
0.00032851327949399745 
0.00036643971176134873 
0.00011406180625304603 
2.1753915170588092e-05 
8.4497221888519414e-05 
-2.8151170036753576e-05 
-0.00010722341917415373 
2.6721791178193087e-07 
8.0771396524456963e-05 
-3.8679094899845381e-05 
7.3891613893779128e-05 
0.00012650768992711662 
-0.00013286327369095371 
6.7287100002906924e-05 
-1.5400955097535919e-05 
-0.00033368693315697848 
-0.00017435958601989755 
-0.00025972782134578296 
-0.00053967403777674091 
-0.00041251545618390534 
-0.00040525157554123064 
-0.00062876815776426176 
-0.00058620151197224255 
-0.00029437399143296639 
-0.00064370508433834062 
-0.00050126221206613845 
-0.00029112385190274199 
-0.00049603458363450077 
-0.000376073870790219 
-0.00020695078258659456 
-0.00027080006455264228 
1.3328354620355621e-06 
-0.00039288540549941144 
-0.00023674311756779123 
5.3064059343666556e-05 
-0.00068832424358026612 
-0.00045935061397558351 
-4.3720182995904008e-05 
-0.00049570335001703468 
-0.00017721624426784692 
0.00024910304567721237 
-0.00021806429186506864 
2.5640877356458574e-05 
0.00048175844732310747 
-0.00023518515271023894 
-1.4092281970325889e-05 
0.00042017041086439241 
-0.00050718149965630428 
-0.00029068525666388605 
0.00012804492761481521 
-0.00047307294018605721 
-0.00021085853450550617 
0.00018221013493445532 
-0.00041988055593770269 
-0.00011857519574041991 
0.00024907225990859847 
-0.00041782573861228459 
-0.00016645981542549407 
0.00016460775987659415 
-0.00041492697328543329 
-0.0002764227169958445 
5.0127337872177498e-05 
-0.00015559070638044458 
-6.637484773625546e-05 
0.00019629264519758705 
-5.0783565717376202e-05 
-9.3360639017885577e-06 
0.00017005177592979907 
0.00012656919398710265 
0.00011837302592354232 
0.0002582393955727092 
8.6079267600439909e-05 
-8.6621116672264375e-05 
0.0001205152928731857 
-8.3012337743650522e-05 
-0.00026876568459829062 
-8.6746387053523102e-05 
0.00010486697211998494 
-7.3012630064060588e-05 
7.9536648358890128e-05 
0.00032449057844339039 
0.00021795088379247094 
0.00033088982660292978 
0.00032208423212574304 
0.00028108600914781765 
0.00033757879801366768 
-0.00014533917242882171 
-0.00021561428384620423 
-0.00020198531979063444 
-0.00018972675251950337 
-0.00030998212865978073 
-0.00031348132373081353 
-0.0001686708751071929 
-0.0002894093347046979 
-0.00024471549210604163 
-4.5209976003696598e-05 
-0.00017687599453469332 
-3.3743239001423109e-05 
1.1912037356594669e-05 
-1.6203835953888821e-05 
0.0001824799353502534 
-0.00038322776421728617 
-0.00027940705473686084 
-1.2947805635050987e-05 
-0.000598604781250788 
-0.00036354798494431565 
-3.2059452341870272e-05 
-0.00055500302519697492 
-0.00028775028075377323 
0.00011068235161087534 
-0.0005641401087464838 
-0.00027196516824407361 
8.0088810948115513e-05 
-0.00044885952855138681 
-0.0001648319230564621 
4.7044546546789237e-05 
-0.00027616017205823372 
-2.8227711578508112e-05 
8.3289969986299786e-05 
-0.00020326448253067472 
-3.7903760613951522e-05 
4.9580814779194265e-05 
-0.00015757069300670633 
-7.8034132429349542e-05 
-4.5530842197123692e-05 
-8.4192265640323536e-05 
-0.00011663338143934192 
-0.00016755129658486146 
9.6407375673727871e-05 
3.1533904186478807e-05 
-0.00010654801398034055 
0.0004249687413990163 
0.00024958850455604974 
0.00014657858939738229 
0.00061140698951665123 
0.00042922746245516294 
0.00030257752922151074 
0.00042010026566248725 
0.000188165996995659 
3.1152745176333863e-05 
-1.3937736188716781e-05 
-0.00025666148698737858 
-0.00041845202330629909 
-0.00018750515267621903 
-0.00039453485733535607 
-0.00049008356575894598 
-6.0154873175060543e-05 
-0.00013548142452117026 
-0.0001876742121760479 
-9.0124734990209882e-05 
-0.00011630408775692773 
-9.821262833085966e-05 
-0.00028049725958251628 
-0.00016255839895235874 
-8.8161562963132449e-05 
-0.00033624566725660868 
-8.1377076776810201e-05 
4.3847218683540516e-05 
-0.00019981706125616261 
0.00018614331682133135 
0.00029974198417484943 
-1.8822566780498569e-05 
0.00045174339762573057 
0.00051772248056015837 
-0.00013111782995855529 
0.00021951049539945509 
0.00028226751162683427 
-0.00010264324050897974 
8.2892930035487512e-05 
7.7290916485072349e-05 
-0.00017834490187010227 
-0.00018296284814513144 
-0.00019092277950523613 
-8.1530747363647979e-05 
-0.00013569844719872132 
-0.00019115568509513561 
-0.0001007764831851914 
-0.00022991168186572866 
-0.00027063544556082226 
-8.3192133678008711e-05 
-0.00025165486416446294 
-0.00025438789886688296 
7.5893855495044746e-05 
-8.9178715127680942e-05 
-7.4541326554681642e-05 
0.00013170555904987757 
-2.3926186362012798e-05 
-5.087133870951769e-05 
0.00026639072897470588 
0.00012388427257646172 
7.7501842062789616e-05 
0.00010592605602798022 
-6.6766852546548336e-05 
-0.00013375815345831869 
4.509049085060594e-05 
-0.00012295453892627198 
-0.00022927558349789421 
-9.7350329301316068e-05 
-0.00020657731080132215 
-0.00028403019416435902 
-0.00015505073810047001 
-0.00016907701465407082 
-0.0002533978348166894 
8.9359671079878336e-05 
0.0001642023679153043 
0.0001433795469018282 
0.00010296215385528001 
0.00028640629612947354 
0.00029758128746237595 
6.3426550917340839e-05 
0.00043505547401725768 
0.00049978189187548159 
-0.00035187377508811717 
0.00015130180913641041 
0.00025568681136200897 
-0.00071488159390745729 
-0.00030189140208677386 
-5.8135995681139342e-05 
-0.0005260963983178727 
-0.00014580671865841113 
8.0435780108113522e-05 
-0.00032645225192376437 
-1.1792999832078263e-05 
0.00018843508601205144 
-0.00024118533835662651 
2.9650271200791793e-05 
0.00017208184510351295 
-0.00020039963216771285 
-0.00011800582303627682 
3.7873251482524388e-05 
-0.00042978811725414418 
-0.00043415004594862734 
-0.00038308352760017789 
-0.00034211263346871048 
-0.00042584291798106942 
-0.00046096727722841682 
-0.00029344674846899863 
-0.00039269127478237402 
-0.00050420093856898274 
0.00017646699255944242 
3.7204714912084127e-05 
-5.5331251742831817e-05 
0.00030876191188611556 
0.00018130767992767489 
6.4828491064795201e-05 
0.00029163352315038327 
0.00017637288047663886 
0.00010844355052371798 
0.0001404344015120034 
-1.0704882705073983e-05 
-1.570879999073489e-05 
4.7856394115150485e-05 
-8.2689184210978266e-05 
-1.0954582260698431e-05 
0.00024327997944709168 
0.00010672015757290197 
0.00024074324663944104 
5.1730922037350409e-05 
-2.274305993839156e-06 
9.9711879028483298e-05 
-1.8204120355464585e-05 
3.9336821770311186e-05 
0.00014488602430943966 
-0.00013813003661224626 
-5.9919691321654802e-05 
0.00016246051741925849 
-0.00014944099579720176 
-6.9770880663611634e-05 
0.00017591853222905193 
-0.00012275088275188629 
-3.8177522396552066e-05 
0.00017249258471591352 
0.00017285282179235192 
0.00019996698744767559 
0.00036911408467442636 
0.00046319630235369826 
0.0003766577089619399 
0.00060067327758901289 
0.00035051403819148666 
0.00016985823943086242 
0.00035341957440157703 
0.00019494505480307326 
-9.0770244174458878e-05 
8.2765310141099825e-05 
3.881399532376958e-05 
-0.00026567344222830683 
-0.00015197892840336798 
-2.1039769425439635e-05 
-0.00037949577369203149 
-0.00029802130525150098 
-7.7145139562506131e-05 
-0.00043809252953432585 
-0.00045736026228299141 
-0.00029945106555876258 
-0.00068461665455157633 
-0.00081220427999938866 
1.6978841643503998e-05 
-0.00029355673679553045 
-0.00056626702637190647 
0.00033751892404818912 
5.9610311431327972e-06 
-0.00028551438690341236 
0.00015785952153376194 
-9.7073486434602312e-05 
-0.00047406412901586755 
8.3385383209372805e-05 
-2.9021541910528514e-05 
-0.00039272826131986528 
0.00021922525935709323 
0.00027325367956547219 
-8.3561035097688639e-05 
0.00018800076754419659 
0.00027510326550209835 
0.0001087910715036055 
-8.0644090735264024e-05 
0.00011613787149637633 
-5.9978521488344187e-05 
-0.00049940061640936062 
-0.0002191086690361143 
-0.00035222094494323047 
-0.00037286855317804048 
-3.274747352828767e-05 
-0.00022951736876402303 
0.00021160535162784448 
0.00054598442070763497 
0.00035025236604195055 
1.3779173073245566e-05 
0.00035005745848032009 
8.993412387833696e-05 
6.418333669361127e-05 
0.00052611784849742672 
0.00010883281071463968 
-0.00010848847917263054 
0.00033798733855377701 
-2.4659763687933376e-05 
-0.00014131853498902046 
0.00018031428661574521 
-0.00012577816755785878 
-0.00024554516146101958 
2.8400006556752888e-07 
-0.0002212985481315738 
-0.00015677750477211872 
9.9491838544404866e-05 
-9.6156196197227524e-05 
-0.0002145171676858845 
-1.3776184049907881e-05 
-0.00015434902613115702 
-0.00040294266221259546 
-0.00029416996475711084 
-0.00039797802961353792 
-0.00021876956159474589 
-0.00017553431646355461 
-0.00025241615183836994 
0.00022681375489233367 
0.00017982937775802533 
8.3103266012456427e-05 
0.00051973450751360373 
0.00044738367728328087 
0.0002971539083756234 
0.00072153105859501282 
0.00063514561232874852 
0.00050241496875889403 
0.00040762387271423044 
0.00029923742109162798 
0.00015017483173011874 
-2.4788505667095135e-05 
-0.0002209767848686773 
-0.00037093014176748691 
-0.00018108113024410948 
-0.00036826404530806425 
-0.00050205020409472992 
-7.1498444846953475e-05 
-0.00031913686813012608 
-0.00037541004329344236 
0.00010766991665377841 
-0.00010268739254166832 
-0.00014611125118747941 
5.0692764495903704e-05 
-0.0001444132177853374 
-0.00015658510061409376 
2.9031846037017662e-05 
-0.00012706565563337411 
-0.00012125227853254452 
-3.4292215227594932e-05 
-0.00016709318502568761 
-9.8870482066320951e-05 
-0.00010811873936776639 
-0.0002365425532292691 
-0.00015863469663795056 
0.00015439021471609673 
4.5733629269279294e-06 
6.248153501179714e-05 
0.0001417343495573188 
-7.1092729238711995e-05 
-4.1452856540951395e-05 
8.8450640276463882e-05 
-0.00028076413323797602 
-0.00027577648719701768 
0.00030454295383963378 
-8.6825147879996127e-05 
-0.0001247381827558101 
0.00047597154748197908 
0.00012771717480004134 
0.00011261398579889843 
0.00065333720106865612 
0.00037922712054890993 
0.00035466218154197807 
0.00023767786650884788 
-9.2410360702584966e-06 
1.7918390341250229e-05 
-0.00027636333635830596 
-0.00047337146626503558 
-0.00042018085434591121 
-0.00020072929205462359 
-0.00034189175563991943 
-0.00027950038971010719 
0.00022200415954745786 
0.00010117390350982327 
0.00015030710032463003 
0.00044317466978521363 
0.00016942871860816026 
0.0003277074829586492 
0.00031857825331404126 
-3.5600428020985501e-05 
0.00011124482581444856 
-5.802673089163239e-06 
-0.00031125375004472533 
-0.0003111108145601103 
-8.2351404244572425e-05 
-0.00040372534132237749 
-0.00041750698328577268 
6.3006530594446946e-05 
-0.00030832878466557559 
-0.00026737014194061704 
-4.3597845458582765e-05 
-0.00025066399304393157 
-0.00020492437859957131 
-0.00024346080060975487 
-0.00031717031719290787 
-0.00019549889656697022 
-0.00038887262791407692 
-0.00027275195272872361 
-3.0861705934639698e-05 
-0.00062057138301439602 
-0.00045742789398362915 
-0.00011621575916258972 
-0.00041563389900089521 
-0.00017421469777390648 
0.00021155076206695183 
-0.00022451928338848456 
-5.8835957741777373e-05 
0.00035280682769973346 
-0.0003527006866960086 
-0.00020126527634682995 
0.00019939430287926774 
-0.00038210388258242718 
-0.00022179908806436486 
0.00015693178720603738 
-0.0001660046164991784 
1.5988725479696781e-05 
0.00036656388552042867 
-0.00016258289835733084 
8.1255907081888111e-05 
0.00042245900421026248 
-0.00023384222668071383 
-6.7554104525805543e-05 
0.00024709769326893336 
-0.00023233346613992984 
-0.00018650219125327641 
0.00011750132103069789 
7.4560170681798831e-05 
7.314041682597297e-05 
0.0002993064025151061 
0.00021980893896522124 
0.0001985144689827105 
0.00033303478044699626 
0.00039673705434841496 
0.00030326004575810826 
0.0003777582695410606 
0.00016655795689402277 
-4.7677659957966894e-05 
5.7368910294622236e-05 
-8.529502720073479e-05 
-0.00034077682348500842 
-0.00025216286774100741 
0.00011727988799061908 
-0.00010906273759908779 
-2.5690309105678451e-05 
0.00036014125832301887 
0.00017756360316667356 
0.00019387527291388955 
0.00042706734857217681 
0.0002946498507254634 
0.00025096448903172495 
1.523722126314255e-05 
-0.00012780679672502856 
-0.00022668373729711828 
-2.919315484576062e-05 
-0.00024508964585252975 
-0.00035709115504016151 
1.8286337771855496e-05 
-0.00015947702050300488 
-0.00022456036010359501 
-1.7267532910104231e-05 
-0.00023817355175765004 
-0.00018020479005803161 
-4.2167155612829911e-05 
-0.00014957966933451807 
-2.2044710165974724e-05 
-0.00043854412680720527 
-0.00037564540374163808 
-0.00018957360901378104 
-0.00049121036405667961 
-0.00028341992126439103 
-1.5032422326914147e-05 
-0.00040454604756189543 
-0.00017820742692882391 
0.00018823850610232468 
-0.00053267746203344499 
-0.00031694635173007836 
2.0061457500014167e-05 
-0.00028708879103911313 
-8.3482165628657448e-05 
0.0001101052972718298 
7.247429893061084e-06 
0.00013401502521812197 
0.00024787488339992844 
-2.4453167375295398e-05 
-4.9200679226358978e-05 
4.2463180040588215e-05 
1.4984674815326029e-05 
-0.00011114908182052193 
-8.7339769742226012e-05 
-0.00016356787239304139 
-0.00036813155974626925 
-0.00041473841255144808 
-5.3806303069526899e-05 
-0.00029568009523758441 
-0.00041161318452896499 
0.00021216875257962551 
-6.427179928069871e-05 
-0.00017188222341046346 
0.00041672753888133629 
0.00011058090970913548 
-1.2983966661254753e-05 
0.00029433200668284158 
-3.5719895544371415e-05 
-0.00018534597532913398 
-0.00012829271966332466 
-0.0004967994981978362 
-0.00061513921676939953 
-0.00017957033556366113 
-0.00051989310691783819 
-0.00060789852115654495 
8.2654977172172326e-06 
-0.00023649688224448991 
-0.00026645638307008903 
7.2932018857765215e-05 
-4.1114092731209037e-05 
6.3531695230962967e-07 
4.5485325385752673e-05 
0.00010864844787854346 
0.00018967106993249543 
-0.00016025047627013053 
5.6790196278285458e-05 
0.00019982430473914576 
-9.5427227743330386e-05 
0.0002096173861940018 
0.00034284193352451949 
1.9847246763906538e-05 
0.00037468571538428939 
0.00051691816111089058 
8.4570068982171156e-05 
0.00034867815851352224 
0.00042821551485132072 
0.00028406410257152814 
0.00038491304001272774 
0.00043683250647606953 
0.00024882897239889137 
0.00015662556127727083 
0.00018092477824966052 
0.00032492754564602785 
0.00016133308737082184 
0.00014235489535940809 
0.00022168289877642813 
-4.4325845622798699e-05 
-8.4201852820893022e-05 
0.00021707421649224231 
-6.9767964647645086e-05 
-6.9982491255406846e-05 
0.00035171843924175191 
7.1890996858920664e-05 
7.5964172865661055e-05 
0.00037505186303509586 
0.00011032732847503952 
5.9027111327328028e-05 
0.00044354041982039554 
0.00018165556907112317 
6.7889333014306614e-05 
-1.3558773593663362e-05 
-0.00031807306925009989 
-0.0004450067315240486 
-9.8738139129375191e-05 
-0.0004030995256604335 
-0.0005655655775577993 
-7.3446682255756354e-05 
-0.000299591450611385 
-0.00044679630491463061 
5.0477079205076821e-05 
-0.00011493552870136864 
-0.0002345713381695266 
0.00020015637805007261 
0.00013784241988692482 
0.00011128880749212115 
4.1084669546456562e-05 
0.00014661116947299187 
0.00017728986363453153 
8.1290450194855993e-05 
0.00032124568144899668 
0.00043758949810727683 
-0.00030018704692448268 
7.2084122552060442e-05 
0.00021869104872439358 
-0.00070364039479494246 
-0.00036516783647115385 
-8.6009824648151004e-05 
-0.00067678544038204426 
-0.00037683057259511356 
-7.8278484393138798e-05 
-0.00048046070504679188 
-0.0002067954532639968 
6.6810554455895725e-05 
-0.00029007793463774916 
-8.3887467159737142e-05 
0.00013815299559691147 
-4.8929461528284955e-05 
9.2083279919918976e-07 
0.0002302119896490997 
-3.0152165627602039e-05 
-4.716956429169207e-05 
9.6720993242923817e-05 
6.67947041508307e-05 
-3.4878186874144415e-05 
6.0370124550055944e-05 
5.9754120974891919e-05 
-7.4450227529221477e-05 
-6.8094751457340176e-05 
0.00039243119223436829 
0.00019372331745323671 
0.00020171601137734132 
0.00039697848396368432 
0.0001488584892264012 
0.00015611170671997403 
0.00036107569687595091 
0.00012415188623578015 
0.00018010162071702861 
0.00036337528503930134 
0.00011219087572077746 
0.00019951026865001556 
0.00039052429577862116 
0.00011317334888897694 
0.00031603584435224274 
0.00033483240791053941 
9.7238518993315317e-05 
0.00030857234986907247 
2.2754933933076904e-05 
-0.00011491107626286618 
5.9463173417511989e-05 
-0.00025776960211568287 
-0.00030784046988151871 
-0.00012030628490145769 
-0.0004053647042270608 
-0.00041311518827040808 
-0.00017389315362738379 
-8.8588047269045055e-05 
-3.2549208916976034e-05 
0.00020034079894313194 
0.00013785656224161275 
0.00017379210786794689 
0.00031406640274850121 
0.00042650964774232141 
0.0003787389750543298 
0.00051807977370320899 
0.00072075065843770316 
0.00051673010403718855 
0.00068009656220230353 
0.00062210274014683914 
0.00029652484511792122 
0.00045376355314236084 
0.00041514565835867862 
-2.6724688072313817e-05 
0.00011182569052339336 
0.00048968186773065984 
2.5347347124429861e-05 
9.2640204338371535e-05 
0.00057071606103247907 
0.00010631702169248356 
9.6143550919697222e-05 
0.00043570710773705845 
-1.5142733108467975e-05 
-0.00012706100410876298 
0.00020126846615899714 
-0.00028475486859903473 
-0.00048719098957407896 
0.0003620172689919997 
-9.5227176346511858e-05 
-0.00038169006202357401 
0.00065330572182240433 
0.00018263470082560327 
-0.00010888768748148515 
0.00048597298627907467 
0.00011743201018453127 
-0.00023879036596205998 
0.00021837199497867793 
2.0565223534850319e-05 
-0.00037408620813723898 
0.00010286574871155106 
4.9049409585548621e-05 
-0.00036381746997696588 
-0.00014172265409409307 
-0.00014929974990974477 
-0.00034587304578207281 
-0.00025120664419654715 
-0.00010163513096516203 
-0.0003199504400250309 
-0.00050606606325438491 
-0.00029175675544798114 
-0.00046702509630860143 
-0.0005903490884468115 
-0.00027528361328649307 
-0.00050703071903164586 
2.4758667703391166e-05 
0.00029070142406342894 
6.3288280075036332e-05 
-0.00014664870721066385 
0.00013395072243286776 
-0.00017423178346868951 
-6.6753636488820501e-06 
0.00054516356857570332 
8.1419335061669058e-05 
-0.00012838274185136746 
0.00037010532244549963 
-1.3359528513088747e-05 
-0.0002072997096019108 
0.00012274831255614129 
-0.00018512574845469716 
-0.00046492087862492104 
-0.00018032601537943679 
-0.00040220726253599557 
-0.00027310869652170938 
-5.4217347851172169e-05 
-0.0002552156942707876 
-0.00028580801817566873 
-9.0190388221405085e-05 
-0.00023886676466950872 
-0.00035790026872827431 
-0.00029237228011641167 
-0.00036426693124218929 
-0.00011383707177637961 
-9.0908100455809515e-05 
-0.00018366583318055139 
0.00028914344334088907 
0.00018089463241226713 
4.5344016267719551e-05 
0.00038176403491456688 
0.00024683530294725869 
8.6533748741530995e-05 
0.00050854697329866293 
0.00032739557845056102 
0.00016902651000351004 
0.00034421590439219995 
0.00014443090050459193 
-2.8518050211533269e-05 
-2.6250134016706689e-05 
-0.0002911725588634518 
-0.00043944748935523622 
-0.00012533850156600009 
-0.0004141039910791251 
-0.0005416646746674446 
1.6288716298762984e-05 
-0.00030837263007313105 
-0.00037421989300679434 
0.00021764669321927159 
-8.4931388799070511e-05 
-0.00012035745946252998 
0.00039475765330207279 
0.00014639464770848219 
9.9192199999207064e-05 
0.00019637934373167648 
-3.1124367065235394e-05 
-5.3782739677970615e-05 
-3.4355063819620641e-05 
-0.00025043043244028909 
-0.00014482082549664656 
-1.2223503564876278e-06 
-0.0002092159553854627 
-8.6167671987012832e-05 
0.00022427322331304122 
4.0772208751140846e-05 
0.00011409178369747973 
0.00020737008792344716 
-3.6513677089815389e-05 
2.022216227340272e-05 
0.0002233397901566167 
-0.00015546351012679503 
-0.00014691885029233026 
0.00037403742827624311 
-8.9336368491249355e-05 
-9.3194554818411756e-05 
0.00037924636889226398 
-1.2592894701146729e-05 
-5.7126507348104516e-05 
0.00065824534595029544 
0.00034480780791859068 
0.00029237626861565002 
0.00035091061406551378 
9.6756072579381097e-05 
8.9303382746991851e-05 
-0.00023953759381502155 
-0.00042355186314657156 
-0.00042579223396810767 
-0.00020019342739866533 
-0.00031706845982410598 
-0.00032801334105884007 
0.00028897889062564876 
0.00016849978940875935 
0.00016576018323148973 
0.00047005106974389916 
0.00026508562642863301 
0.00034171774711751489 
0.00027189463679701378 
-1.8043268437726467e-05 
3.836536759074959e-05 
7.9319089621470988e-05 
-0.00021344708008873498 
-0.00020550829024392243 
3.1334341003299859e-05 
-0.00028995179602597966 
-0.00032720190841517024 
0.00018863697031653808 
-0.000163361805330544 
-0.00016756681227122705 
0.00017655536505826411 
-6.3836329041472851e-05 
-4.9503898484670565e-05 
-0.00010881013936774259 
-0.00016860532745091654 
-7.0326143354138433e-05 
-0.00022983636782888066 
-0.00015426555245478673 
4.7382457322386681e-05 
-0.00047552184670976737 
-0.00032697016509814717 
-5.2528314324316903e-05 
-0.00024897482744046695 
-3.4204443411327586e-05 
0.00027359926756212417 
-0.00012040620508064787 
-4.6244101737969225e-05 
0.00032173918268028933 
-0.00038473235304095307 
-0.00031970859519333877 
2.548797727047283e-05 
-0.00026797583678477363 
-0.00016446821445825039 
0.00014727886525831886 
3.2688029612244226e-05 
0.00021281334753348136 
0.00051974202941097562 
4.9186524099494123e-05 
0.00028540636616980713 
0.00057549974621812152 
-0.00010173827041654783 
5.5580765689624856e-05 
0.00034788903391297338 
-5.1461687974036065e-05 
-7.2329189688373439e-05 
0.00018406738881364724 
9.0220675651277141e-05 
4.548454933180788e-05 
0.00022251788186761318 
0.00017698374226239063 
5.817135731325957e-05 
0.00010105891388954295 
0.00055700658079425576 
0.00040661594053012577 
0.0004226413611844115 
0.00026435798124331219 
-4.7692474603722672e-05 
5.3415997641930306e-06 
-0.0001817841129976967 
-0.00055014274235744396 
-0.00050359688473220409 
9.2870257844657941e-06 
-0.0002993285567308562 
-0.00029334634545685398 
0.00019019671027406846 
-3.681021896865947e-05 
-0.00012059085321274593 
0.00045406599855956606 
0.00026770311556146176 
0.00016181997304886615 
0.00022521209917652712 
2.7682462147173215e-05 
-0.00014335539257235444 
-0.00021420879014194628 
-0.00051712829152098568 
-0.00063873898233694293 
-0.00013068851070891261 
-0.00039287390903187442 
-0.0004965805924532214 
-0.00010801308695970576 
-0.00041659106171200498 
-0.00038259654048053768 
-3.2877473117791239e-05 
-0.00021045300788032474 
-0.00013833355733153726 
-0.00016832447669582739 
-0.00010603242419524942 
2.1739913124857204e-05 
-0.00020585600900111141 
3.8522974460470467e-05 
0.00025543567461565439 
-0.00033975628751075628 
-6.9172468091262279e-05 
0.00024542511511978693 
-0.000648686585811531 
-0.00042950903857345911 
-0.00011744328013216994 
-0.00016810822206310259 
1.5337215187277603e-05 
0.0001647437942550637 
0.00027249644703196499 
0.00035530723593113424 
0.00043036303113053442 
0.00028568494368907824 
0.00019399452242207301 
0.00025228870989958024 
0.00040263565322943841 
0.00021833328732174016 
0.00020269847949108387 
-9.8827554224009602e-05 
-0.00037011172655529488 
-0.00041895392997524065 
-0.00023719161534425939 
-0.00052179471017714768 
-0.00064047068185256386 
0.00014008313013201255 
-0.00021484956756143966 
-0.00030411320859745155 
0.00034247292444940247 
-6.2739552370445774e-06 
-0.00011410675150884919 
0.00025620880417001531 
-0.00010782091160703008 
-0.00020308985719354872 
-0.00013024533836464419 
-0.00051414187368431551 
-0.00062451649623953556 
-2.9427198375187826e-05 
-0.00041472055664270652 
-0.00043297237662279545 
0.0001201338217849617 
-0.00015187067319914202 
-0.00013988797309697013 
0.00016970361227358648 
3.5010081171538436e-05 
8.8636499052735751e-05 
0.00015513628082283198 
0.00023327993353899275 
0.00035259231306868435 
-0.00019331361520166784 
7.8627692020131199e-06 
0.00022156006327349702 
-0.00027459771010873046 
3.0257878427425582e-05 
0.00025323811538503565 
-0.00036017691424396436 
-3.3513632151343637e-05 
0.00012718037248876565 
-0.00022934560652798747 
-9.1819572816375234e-07 
0.00013989713609312821 
0.00012224573283102871 
0.00013151630794912205 
0.00022202903099030862 
0.00023792753947996146 
9.4936639729821689e-05 
0.00012812286798990084 
0.00031589328294886923 
5.3088216198946364e-05 
5.8788794419604319e-05 
0.00019157941363506803 
-0.00011121540315151309 
-0.00014505614367997305 
0.00023685752178524708 
-8.1602662204943342e-05 
-7.2017171210968456e-05 
0.00041318723185205283 
9.6006630584560766e-05 
8.9093764380442442e-05 
0.00059047542860604847 
0.00030884677029161136 
0.00024128808241804828 
0.00053604006680417688 
0.00020149603664939604 
0.00010689729723572109 
0.00018511883621878187 
-0.00015021947626149952 
-0.00030876372624781648 
0.00012318238487702917 
-0.00020026932605295286 
-0.00037861445219630643 
0.00014467383828743564 
-0.00016764677336734374 
-0.00034186299658094495 
0.0001432825983243864 
-6.3502304094401003e-05 
-0.00018728407013509729 
1.8962822537138951e-05 
-9.3684944167800373e-05 
-0.00011164331086551245 
-0.00037855353958905633 
-0.00037679195768181457 
-0.00032736195780646812 
-0.00029410459562653421 
-0.00012380861822302403 
5.8724838607736275e-05 
-0.00040947676769829928 
-9.8580840209657689e-05 
0.00012202757978278274 
-0.00058754421516242386 
-0.00028907898486548735 
3.6190016471635671e-05 
-0.0006225417942750587 
-0.00036745711611983197 
-1.4399609668844683e-05 
-0.00066630047307843449 
-0.00042732062200356917 
-0.00013450674386112634 
-0.0003373062279541234 
-0.00021332268592121712 
5.771082809735281e-05 
-9.3327507417648558e-05 
-0.00010023711572351078 
0.00017297062302579563 
3.4928501835946565e-05 
3.3567131098484213e-05 
0.00020269220381850908 
0.00015157582918707825 
5.6597906426669115e-06 
0.0001643608374268141 
4.5234639906840652e-05 
-0.0001315601343313877 
-5.9132138275655122e-05 
8.1256699301900088e-05 
-0.00013726566138996975 
-0.00010456032325394267 
9.9739003971242662e-05 
-0.00016953597745855437 
-0.00012795310703057422 
0.00026920430640796215 
-3.3241539944839703e-05 
5.6711233170944541e-05 
0.00047698836905230756 
0.00021960760505208377 
0.00033220753921578796 
0.0005401792018460387 
0.00023550546062472188 
0.00047575798835630299 
0.00020015883055154164 
-7.8839635152498286e-05 
0.00014275855769740236 
-0.00030926197707117063 
-0.00048655596720008229 
-0.00030757997492180739 
-0.00041015894306438118 
-0.00050056291970252288 
-0.00032822477399866795 
-0.0004737274439059282 
-0.00048534919076230601 
-0.0002619675629937909 
-8.6631314480926317e-05 
-5.2295687486797735e-05 
0.00015964121033778329 
1.4146663714583832e-06 
-3.5108648643047616e-05 
9.9852812130547049e-05 
9.1959486772654972e-05 
-4.0085697766534974e-06 
7.5617488906722091e-05 
0.00020658845957064386 
-0.00011353942223359355 
-3.1419154746010092e-06 
-3.3161923996530035e-05 
-0.0004856885200292927 
-0.00039044893850637813 
-2.1740790035614814e-06 
-0.00048458074701673078 
-0.00043336337109973409 
0.00015483327425173566 
-0.00035677216174313537 
-0.00036513049184525931 
0.00034442742124544268 
-0.00018303115989521957 
-0.00022330936925760375 
0.00039741666901639875 
-0.00010782944017900383 
-0.00022268576249670025 
0.00033896519510882888 
-0.00017357593777786828 
-0.00034555983878214395 
0.00045981388219939686 
-2.6434712029155117e-05 
-0.00025246466986860686 
0.00065478247479709652 
0.00018219471683860906 
-7.3086806120268869e-05 
0.00064019323705075202 
0.00025676367345231385 
-6.1868149908686618e-05 
0.00056772204732647184 
0.00031546736618562484 
-7.5021049104235393e-05 
8.929035126244824e-05 
-3.4713581959419095e-05 
-0.00044854363005178394 
-0.00029177999595045859 
-0.0003487033871319005 
-0.00056929591828070976 
-0.00026751454722181268 
-0.00012304825209575153 
-0.00034360054356302852 
-0.00025449406837830358 
-4.3183414535487415e-05 
-0.0002145956653001677 
-0.00042576646646968623 
-0.00010969997766213083 
-0.00035279176128869395 
0.00029613267334951054 
0.00058298787525751055 
0.00037150648033268396 
0.00037825663256802421 
0.00070764698963171895 
0.00037765501014255993 
-4.4011215192030308e-05 
0.0005960676888181421 
3.4955629420577676e-05 
-0.000133005587805379 
0.00050224829468131435 
2.0253063527165242e-05 
-2.7942827863115938e-05 
0.00041188711816481912 
4.2684918966337678e-05 
-0.0002912054394849255 
0.00010872323661085494 
-0.00016516987089021452 
-0.00020510816914894004 
8.0738944123558547e-05 
-0.00015233021727870935 
-6.55793777008988e-05 
0.00014789821900066909 
-2.5086205522417742e-05 
-0.00012219862274264392 
-6.942896093972902e-05 
-0.00020650658133159012 
3.7855074048138338e-05 
-2.1685389170522976e-06 
-0.0001251880651941677 
0.00036914422812129151 
0.0002322484760192071 
5.2869957393145914e-05 
0.00028212255131145145 
0.00011599815080969776 
-8.6511274757193965e-05 
0.00035635329751788994 
8.0452434996541563e-05 
-8.2939316880368814e-05 
0.00031838008790177668 
1.9003760913807116e-05 
-0.00014938297305026256 
5.4864879559704457e-05 
-0.0002596900989467208 
-0.00040127294003595038 
-9.3158229489425786e-05 
-0.00042094393876955435 
-0.00051194295465042743 
3.6058218910609162e-06 
-0.00035754661532471033 
-0.00038861212355476038 
0.00035433539067421607 
-7.4649963954816173e-06 
1.9887905576320508e-06 
0.00052505379487916774 
0.00026126614369250398 
0.00024329819298729176 
0.00022918245705611987 
-6.4214260458830204e-06 
-2.5489122420755356e-05 
-2.1346103223951392e-05 
-0.00024801578329282337 
-0.0001408612069873691 
-9.0573632933106057e-06 
-0.00023520386182985994 
-8.7385643986606044e-05 
0.00013040474457471087 
-3.4744196913263159e-05 
7.3228544238423233e-05 
1.6075505025780423e-05 
-0.00024442312957883861 
-0.00012034008310887187 
5.0940158326706499e-06 
-0.00038562339913396847 
-0.00034613492358353669 
0.00025344139515748001 
-0.00018470495621076638 
-0.00018924590287673057 
0.00021424019927775934 
-0.00022098513573881424 
-0.00023833039835261742 
0.00061644276534262568 
0.0002190052742206997 
0.00020302767413691962 
0.00043374213559589452 
0.00018315690710639241 
0.00018053878341144715 
-0.00010188681395039469 
-0.00025242577394255563 
-0.00024836194679423145 
-1.1486695748551983e-05 
-8.376613263497387e-05 
-0.000115916350433275 
0.00037893832492432545 
0.00029711612323644708 
0.00029582705289654372 
0.00051651302281932197 
0.00036926530055619757 
0.00040545594941238144 
0.00015386067411512057 
-8.5127971555621246e-05 
-4.9973426329711115e-05 
3.1442730284415014e-05 
-0.0002603940408233781 
-0.00028390419261862832 
-4.7461767598892155e-05 
-0.0003376154486879724 
-0.00038277803644110145 
0.00010955086270477782 
-0.00021855621095860197 
-0.00019861528798573091 
0.00014824287283814861 
-5.3966554892236365e-05 
-3.3146436566505668e-05 
-0.00014421295718815028 
-0.00020365658383416965 
-0.0001166887337361644 
-7.7510549145617361e-06 
9.5714341858882266e-05 
0.00027600671497228897 
-0.00019598837074833773 
-4.6105745695514932e-05 
0.00019413111048556024 
-8.6613889033104247e-05 
8.7864574264103553e-05 
0.00039469244767131271 
-5.081158154269273e-05 
-1.7046077109312712e-05 
0.00032428838609136742 
-0.00042497900532468928 
-0.00044796930280542141 
-0.000118638095797175 
-0.00020979487550080406 
-0.0002168849459765403 
0.00011305043951924195 
9.2669192077559441e-05 
0.00019404875979134496 
0.00047037971239143376 
0.00013280908017995893 
0.00030488094606896139 
0.00058050670131681392 
-6.0763273405570889e-05 
4.7782582803742282e-05 
0.00029750229312754329 
-5.1038452317617465e-06 
-6.841400997566248e-05 
0.00012268580077571728 
4.8630101348938811e-06 
-0.00012842575657924231 
-3.5200602200051403e-05 
0.00015990106939532266 
-2.5224077103445964e-05 
-5.4904401332074495e-05 
0.00051106369118739678 
0.00029928539248263324 
0.00021826383624645675 
0.00038707928264059178 
2.4063713636734768e-05 
4.9097848372225167e-05 
4.6817289306565845e-06 
-0.00038766471448427629 
-0.00036577909401940624 
0.00011661679093283574 
-0.00016645302440092543 
-0.00020931285765060656 
0.00023013917253363912 
-1.6075391179797933e-05 
-0.00010215504404458964 
0.00069113536758405234 
0.00048930934036729603 
0.00034608074925511305 
0.00029577760082745669 
8.8709755575218325e-05 
-9.5330111946267127e-05 
-0.00032461934505460338 
-0.00060682237462434286 
-0.00076947673586247583 
-0.00037917784924834322 
-0.00064808645227679162 
-0.00076514294516216849 
-7.6046622744946901e-05 
-0.0003743815756756015 
-0.00036981210140310994 
3.2861132033023582e-05 
-0.00011754213368278112 
-5.0998954252243273e-05 
-2.0427420930992566e-05 
4.9071806039202721e-05 
0.00015481091016961089 
0.00012523465251067383 
0.00039985364042958315 
0.00055616046977585091 
-8.1456850288655295e-05 
0.00023529902503270354 
0.00053057921437775024 
-0.00054461203981457003 
-0.00029117537667915718 
-1.7233470136329565e-05 
-0.00019793843301825373 
-4.2801213401049218e-05 
8.7970541855666781e-05 
0.00022186024618148995 
0.00024057522662411052 
0.0002798166848880747 
0.0005397388246202279 
0.00043586603602278938 
0.00043373142445690926 
0.00034254088435739852 
0.00017365820268706059 
0.00011157429783618775 
-0.00010353968385609117 
-0.0003325421474945306 
-0.00039992166589211924 
-2.303298922646297e-05 
-0.00027456769611847566 
-0.00037701492311502545 
0.00032774743534937166 
8.2961104896453361e-05 
1.6418334154488826e-05 
0.00036012388187343805 
0.00011312718166409752 
3.757268552315676e-05 
0.00025214477038565782 
-4.3550203991124558e-05 
-5.9751668310438651e-05 
0.00011270001190304683 
-0.00017423030514620419 
-0.00018138682262762651 
0.00019344327035647732 
-9.1078882341839699e-05 
-4.0183260803537896e-05 
0.00046001654495982216 
0.00030597641015140867 
0.00038146011692867125 
0.00043558391738914134 
0.00039120508446237529 
0.00052762467459395879 
2.8853981453219981e-05 
0.00012495979260136709 
0.00031933709602583441 
-0.00035020946637491854 
-0.00012131632045123011 
0.00012537676377717428 
-0.00061135609277832904 
-0.00026813524278746062 
-2.0780826833416449e-05 
-0.00065335519792530472 
-0.00035758495214004837 
-0.00010859147393794881 
-0.00052193569313224969 
-0.00035937304220719576 
-0.00018541540258711623 
-8.9668510963673847e-05 
-0.00013887129399758015 
-5.0716669516922961e-05 
0.00014565305037363832 
-4.179500878438815e-05 
-1.627692260876613e-06 
0.00041754051639656358 
0.00017727562074992917 
0.00016880377716865696 
0.00037760744485741449 
9.9349664694525536e-05 
5.8322886200122293e-05 
0.0003573045821798001 
8.2060635982753803e-05 
7.1800181576566063e-05 
0.00044218935553658114 
0.00018682117672100913 
0.00018122415476655375 
0.00052039923640325922 
0.00029307778395336548 
0.00025141525233944898 
0.00049326944943413266 
0.00032875956526777061 
0.00022551822948856711 
0.00041820427882196029 
0.00023219977747852418 
0.00010365487327151227 
0.00044093073046150294 
0.00023345108017380165 
4.3195463767359912e-05 
0.0003400517630360681 
0.00012254848637352765 
-6.1460631830745395e-05 
0.00032293543048897053 
0.00013691591628079664 
1.9417499425899725e-05 
0.00012408091081618004 
2.2703994565497812e-06 
8.767726233444742e-06 
-0.00045969992756623627 
-0.00046724817586334897 
-0.00036055783559102791 
-0.00048021776377970166 
-0.00032938309123962364 
-0.00012437904371496609 
-0.0003945600483639588 
-0.00011646127966284876 
0.00014635475124558306 
-0.00031244438170429794 
-1.3362318432529299e-05 
0.00033850812758043168 
-0.0002954679531608501 
-1.3221691450618263e-05 
0.000329746372541748 
-0.00025974404232153697 
-3.6146833426632614e-05 
0.00024364381361433735 
-7.5722941289361591e-05 
1.0516928896534644e-05 
0.00028821594584113071 
-0.0001289586586253881 
-0.00017469838366264239 
5.178084642739355e-05 
-0.00018440290336124869 
-0.00025893002242270507 
-0.00011211548511385971 
-0.00017561732679119147 
-0.00028079627373001222 
-0.00017754763485282012 
-0.00015655158975751927 
-0.00028206177723482002 
-0.00023544621190618717 
-0.0001511985264882882 
-0.00036168371366755866 
-0.00031064452789689422 
-0.00015076297936962642 
-0.00040329737531678757 
-0.00034236222544726012 
0.00015410383291622676 
-0.00011669915802291499 
-2.4890940287232151e-05 
0.0003019452199655271 
4.398700741486512e-05 
0.00014021627656315928 
0.00047743253605205991 
0.0001824070907766163 
0.00038170480870113488 
0.00012515340566981588 
-0.00015414140179106757 
5.4104098624859536e-05 
-0.00023043702320026758 
-0.00046444760744245294 
-0.00025400931326824031 
-0.00023224113294528786 
-0.00032704605195783609 
-0.00015127022563755349 
-0.0002664846739579765 
-0.00026172330103007413 
-7.4113833929595192e-05 
-0.00020986169299228705 
-0.00015999614809142593 
3.5108090200311213e-06 
-0.00019447075248703582 
-0.00021470986061285116 
-0.00012724721305783248 
-8.2056395868418776e-05 
-0.00019188967018171296 
-0.00014050624822321831 
-4.8698678399924629e-05 
-0.00036883996077551013 
-0.00029349610378564286 
-0.00031183430120061689 
-0.00074881188689008735 
-0.00066846645364582061 
-0.00011531855091920436 
-0.00058042959731078648 
-0.00051128319133483292 
0.0002347977515277791 
-0.00019369641823578041 
-0.00018060627316434803 
0.0004537871572775034 
-7.1990959932953168e-06 
8.8129681228908478e-06 
0.00033842578484344609 
-8.2577691044523029e-05 
-0.00012793918477484062 
7.0214213781807444e-05 
-0.00036619403497364803 
-0.00045840643236229203 
0.00022687066885906164 
-0.00017531113714539637 
-0.00029314811694622074 
0.00047858959524156727 
5.3791402175467429e-05 
-5.1911989765555842e-05 
0.00062519470536756062 
0.00024215156766290406 
4.5340594926797939e-05 
0.00029412465292977176 
-5.0725345196315796e-06 
-0.00030091392604493527 
-0.00019462941632480033 
-0.00041376269674927316 
-0.00075126478116341073 
-0.00039739762959395305 
-0.00049667035023408799 
-0.00069135430864391569 
-6.575763019901257e-06 
6.7937542546587094e-05 
-0.00011408496807874789 
0.00017313673553241433 
0.00031841197355887831 
0.00019414821981669913 
-2.3366658171237539e-05 
0.00025936676246843553 
3.4061411478949483e-05 
0.00044118119916194552 
0.00072176067205093888 
0.00052854098870074647 
0.00032816247896503371 
0.00063881446040962159 
0.00035890332457609955 
-0.00024874878543265351 
0.0004211381317684824 
-9.7641384777451935e-05 
-0.00010863004140430275 
0.00051116380466092429 
3.5891779440137181e-05 
-5.5677198023643668e-05 
0.00040391029284564487 
5.4518248997436346e-05 
-0.00044009237493118527 
-6.2729178627462135e-05 
-0.00032731213040919203 
-0.00030885107740688371 
-8.0622333408108198e-05 
-0.00025841143154690656 
-0.00010511508565138612 
6.5614715883478784e-05 
-8.368870526016368e-05 
-7.0663617706692719e-05 
-5.8794553156222982e-05 
-0.00018401744910216534 
6.2276881856286574e-05 
3.2696812504143556e-05 
-0.00011313074233366936 
0.00035090046426401533 
0.0001796186096682814 
1.8830598181427305e-06 
0.00036826070391371836 
0.00010491220454172877 
-0.00011022658123122623 
0.0002809615977309821 
-0.00011278590523040324 
-0.00027133702967704513 
0.00020832846523518244 
-0.00011999383538899775 
-0.00028916863036882552 
9.2308753630218938e-05 
-0.00020043989761763607 
-0.00032257698009534899 
-1.0777838610673351e-05 
-0.00034870797526763317 
-0.00043689147981325121 
0.00013378986868643058 
-0.00025518230423133686 
-0.00024856443158921256 
0.00029208243876970686 
-9.4210070599869871e-05 
-6.611977244451171e-05 
0.00037648653563218627 
8.5024013548736708e-05 
0.00010321606389039978 
0.00017856001484898665 
-6.9402962278621637e-05 
-1.9050452870268483e-05 
8.6011943810058915e-05 
-0.00011224988513017334 
3.5747147448515354e-05 
0.00012013916109457404 
-6.2787532398436664e-05 
0.00013639432135368069 
0.00016315588137397565 
-7.4839512053323797e-06 
0.00015437083340312768 
3.8633008538419769e-05 
-0.000165576752585299 
-4.7858802219773793e-05 
4.3662925604256127e-05 
-0.00034610665876715118 
-0.00025769526650461309 
0.00021805113589585119 
-0.00020421093834788965 
-0.00018965121191412662 
0.00027659319174490506 
-0.00019642360085648838 
-0.00017723416724390524 
0.00062170295113627089 
0.00022710836854570015 
0.00021805355954903784 
0.0002765393695451091 
7.0568812821475741e-05 
6.9876063531539153e-05 
-0.00017381871609587819 
-0.00026655977764173874 
-0.00027764258964026357 
-3.8560171917998734e-05 
-6.4409133904264317e-05 
-6.8440422029985396e-05 
0.00030693193617888331 
0.00030986729796738955 
0.0002999908043451966 
0.00049561516490610421 
0.00040335939951555101 
0.0004420744549819926 
0.00027227508026462404 
0.00010975684444099831 
0.00012555298712328144 
0.00013841214892294898 
-8.6757576332064046e-05 
-9.348757848069906e-05 
-1.5814449827543142e-05 
-0.00021967284199744816 
-0.00028164642831595321 
9.1199919801822265e-05 
-0.00014351594729291339 
-0.00012605994428840467 
0.00029637217289994717 
0.00015264463823281942 
0.00015100549514311456 
3.829332252338973e-05 
2.8333560385786885e-05 
0.00011285521406199781 
-6.0629167177427058e-05 
5.3072029731337722e-05 
0.00021854498481416057 
-0.00013436928207864168 
9.4990427603216321e-06 
0.00024704735454374231 
-0.00015211994063994117 
-2.110620297459781e-05 
0.00025075407117538823 
-5.0633253602953227e-05 
-3.7695387349017401e-05 
0.00023720095817159 
-0.0002303598775231709 
-0.00027570659431496635 
-1.0049665357648937e-05 
-7.0193361389459235e-05 
-9.144139155687779e-05 
0.00016641153894712753 
4.515980083823647e-05 
9.4334042713820608e-05 
0.00031808276449908212 
-3.5805651393833953e-05 
6.6911404421471067e-05 
0.00029097935832445379 
-0.0001404000187026037 
-0.00010540070869216725 
8.5157627610805663e-05 
2.2316237717144764e-06 
-0.00010261887805902791 
1.1217755018232497e-05 
0.00010096568661929199 
-7.0278981284881646e-05 
-6.7565064723823937e-05 
0.00016208682450371802 
-8.6202630440543587e-05 
-0.00017204209007711478 
0.00039586387418502069 
7.816031115032203e-05 
-1.3846314748806749e-05 
0.00024373857000084903 
-0.00021824828405711885 
-0.00019176051603497747 
5.4227280473913728e-05 
-0.00036582765579559073 
-0.00035069703854334193 
0.00030142649919860003 
3.2932610021495451e-05 
-2.1551254503783439e-06 
0.00042847745575377947 
0.00024409635535938926 
0.00013932059014127706 
0.00070657738894161764 
0.00052880109859815391 
0.00039652939104182762 
0.00034773122838973366 
0.00017212808177146659 
6.6186353050248351e-06 
-0.00016915407863519463 
-0.0004126189660055097 
-0.00053011771746174917 
-0.00011819662098259344 
-0.0003942414188230956 
-0.00046576091958582921 
-1.6609018440122028e-05 
-0.00029504340125566616 
-0.00024707062282471558 
3.2222472240692471e-06 
-0.00016770463896447952 
-6.1909220412863626e-05 
-0.00016366991153703273 
-6.4978468506146679e-05 
6.0191656754377722e-05 
0.00011294789602156406 
0.00038017092148398009 
0.00054925945530122898 
2.0332306805431454e-05 
0.00033973223647409842 
0.00063023632827259807 
-0.00035881344086609638 
-0.00012165675991918688 
0.00014032062307739373 
-9.1202726802780637e-05 
4.8320320363707782e-05 
0.00014796806553696711 
0.00017591613814292383 
0.00020499443798795294 
0.00018819920165576945 
0.00042825115735007382 
0.00026335127702422164 
0.00026472118270974945 
0.00021012068707775643 
-3.2273783164952276e-05 
-8.6173115663921044e-05 
1.3173527154436826e-05 
-0.00022600102512717262 
-0.00027574843420579277 
0.00020574422183744102 
2.9629984877544306e-05 
-2.26780387596307e-05 
0.00046712016753603307 
0.0003027244621478876 
0.00028383199119971699 
0.00038769009667713559 
0.00023612702176765185 
0.00019720967506270013 
0.00011323008397324861 
-6.3693619222954625e-05 
-5.7793959330810192e-05 
7.9393767182980531e-05 
-8.0722380211874033e-05 
-4.8560088797054558e-05 
0.00033958113250307669 
0.00016316786956212365 
0.00023952396546006419 
0.00066189074543090488 
0.00055877495704222981 
0.00067635762223463105 
0.00056285995571830503 
0.00053147582823600886 
0.00067150496367895007 
-0.00010728038599356092 
-6.5254011799847736e-06 
0.00018532851315227218 
-0.00051454011497986956 
-0.00026099679661116315 
2.2546733418773573e-05 
-0.00052875389414891536 
-0.00015350856960044001 
0.00016091873868792706 
-0.00055968179406046476 
-0.00025391554622855963 
5.8714346726078947e-05 
-0.00044311628532638981 
-0.00033163395010757352 
-5.131456385635671e-05 
-0.00012518590706334304 
-0.00022516728796210476 
-8.6860289546165803e-05 
-1.1940348493857342e-05 
-0.00022588931651189453 
-0.00018027800518729612 
0.00024362680898367702 
-4.2183854853763459e-05 
-1.4837423418198624e-05 
0.00038590307157127939 
0.00010826049026890685 
0.00010475829248867484 
0.00038423015865310183 
0.00016449766219836227 
0.00022261527368171001 
0.0002830926131565419 
0.00014108932618491562 
0.0001586879321505462 
0.00024246140642900823 
8.2469335683611915e-05 
0.0001042110365324303 
0.00024070881418547836 
0.0001648459507082368 
0.00010342631970845143 
0.00025422857017440531 
0.00016133688375680633 
6.5973484360043474e-05 
0.00020656464904581 
0.00011949492947087978 
-2.8600535230998676e-05 
0.00020661886752701116 
4.5511715860253676e-07 
-0.00013374976015710058 
7.6100619749261099e-05 
-0.00011125672768215746 
-0.00019072929023963221 
5.1282321595962915e-05 
-9.5507452059813498e-05 
-7.5155900186576831e-05 
-0.00028376111653471861 
-0.00032688264983444582 
-0.00020909812820893938 
-0.00052797752500780958 
-0.00038129502118010994 
-0.00020766350475780442 
-0.00037217579175446828 
-7.3178893176167816e-05 
0.00015475432513799037 
-0.00020714104073255759 
7.4600676047682107e-05 
0.00039998922471977042 
-0.00011002275972165593 
0.00013795583239588206 
0.00046225263397428975 
-7.8099128283599183e-05 
6.1211307815205339e-05 
0.00033763584659644841 
-8.1086987339279415e-05 
-3.7561024495937154e-05 
0.0001547414403823183 
-0.00013329354597314512 
-0.00027925784666665301 
-7.6457413175507307e-05 
-0.00023733623295308336 
-0.00034512258563301041 
-0.00022430195108652198 
-3.8922045579519615e-05 
-0.00011093472419263219 
-4.5260064517559179e-05 
-3.0935947257542778e-05 
-7.0270892217222267e-05 
-9.2873498510081024e-05 
-6.1588760571960207e-06 
-0.00010557786366467065 
-7.5477013692111541e-05 
-0.00018595993635376685 
-0.00031708402879686959 
-0.00031395147861387903 
-0.00014280837646195166 
-0.00030152843480020627 
-0.00026908040634409568 
0.00011331160446312807 
-0.00010358823546072917 
-4.6847691744096541e-05 
0.0001878560655569152 
-0.00010814130273446744 
2.9566365104367954e-05 
-3.1904516694588602e-05 
-0.00032276967694571063 
-0.00013713445486123851 
-0.00010935053011043876 
-0.00030731654500079598 
-0.00014451301678392676 
-1.1728094436749111e-05 
-7.5701616545949276e-05 
6.0130492715325464e-05 
-4.6886025657679497e-05 
-2.2842741655718507e-05 
0.00013903118143536865 
-1.8482887979849268e-05 
4.5729064849058038e-05 
0.00016033697513508012 
-5.7769641980428435e-05 
-5.8220095177192755e-05 
4.1123740339867433e-06 
0.00012591580596764391 
7.6783992000687838e-05 
0.00010198471888125596 
0.00011054111892082227 
-0.00012334309351423915 
-6.6093855414956634e-05 
-0.00022687774608221855 
-0.00057885128245009632 
-0.00054964750169412657 
-7.8912252162659059e-05 
-0.0004100807084540032 
-0.00037836009008997883 
0.00043824773336689917 
0.00014848729726423066 
0.00016496854564300862 
0.0006408336351233254 
0.00036218853807595738 
0.00040394558662776666 
0.00032824334329876949 
2.3383792078973851e-05 
2.6112536089625372e-05 
-6.7548226709463036e-05 
-0.00037159445893087767 
-0.00038616003424090338 
0.00011256043204586819 
-0.00015229520072249726 
-0.00019020502151299816 
0.00035826505646186586 
6.2072852621512575e-05 
2.8250399297536901e-05 
0.00044451445901180238 
0.00013555607550177803 
1.5612883536233805e-05 
0.00033398121069720747 
4.6568381230787761e-05 
-0.00017986793779256133 
-0.00012556993805957364 
-0.00035205632490439148 
-0.00064408576291751776 
-0.00018172199908118245 
-0.00026443825945250958 
-0.00045062524204885385 
0.00017676996660923399 
0.00028732196200888742 
0.00011127404083245323 
0.00011786562615894258 
0.00030875841881745691 
0.00018879807974316675 
-3.9673661069075333e-05 
0.00028870892705576716 
5.5099035707596828e-05 
9.1008504872367322e-05 
0.00037255187922756867 
0.00019521663169580838 
-0.00024676842757067149 
7.0135727986848028e-05 
-0.00015799616606922997 
-0.00043167771963928967 
0.00020169251217765053 
-0.00021767335945459786 
-5.2331447957368367e-05 
0.00051691423666315559 
0.00014981426919818001 
2.5925151951301768e-05 
0.00040793514821811346 
0.00016231543602172272 
-0.00047348936437755336 
-0.00015477761166045895 
-0.00035715059451723398 
-0.00026866371749117692 
-4.3822017507339438e-05 
-0.00019786732069897766 
